baseline/conv2d/kernel:0
(5, 5, 3, 6)
[[[[-2.22915225e-03  3.14602070e-02 -9.43810046e-02  7.65002370e-02
     5.75652905e-03  8.80853906e-02]
   [-7.25675449e-02 -1.85302749e-01 -1.96977928e-01 -7.84490630e-02
    -3.57790887e-01  1.21112421e-01]
   [-1.07028484e-01  1.02274120e-01 -1.40505895e-01 -2.09809572e-01
     8.04499909e-03  9.61280689e-02]]

  [[ 4.56862226e-02 -4.98204082e-02  8.53150561e-02 -2.27695405e-02
    -1.25163058e-02 -1.69799291e-02]
   [ 1.96099654e-01  1.25516308e-02  1.69469595e-01  1.59647204e-02
     5.57666570e-02 -1.72049060e-01]
   [-1.62937082e-02 -1.03898637e-01  1.65884942e-02 -1.16697475e-01
     1.42714053e-01 -1.48802921e-01]]

  [[-1.68790847e-01  2.34537080e-01  1.23499393e-01 -6.37678280e-02
     3.87779474e-02 -2.97783990e-04]
   [-3.48625541e-01 -1.12283893e-01  1.36469230e-01  3.86529565e-02
     4.26326022e-02 -4.51340415e-02]
   [-5.75454235e-02  8.89783204e-02  8.95357952e-02 -5.77012524e-02
     2.95227736e-01 -1.54859349e-01]]

  [[-1.89618524e-02  2.18296632e-01 -9.58343223e-02 -1.42503768e-01
     2.83993632e-02  1.80280209e-01]
   [ 5.19737974e-02 -1.40104860e-01  3.59549411e-02 -1.28964558e-01
     3.91887054e-02 -1.40832782e-01]
   [ 8.03592578e-02  9.96844992e-02  1.12426355e-01  1.48029909e-01
     5.20626828e-02 -7.84991980e-02]]

  [[ 1.00640938e-01  1.05088428e-01 -1.79021791e-01  4.26677838e-02
    -5.66870421e-02 -1.69495586e-02]
   [-3.45144458e-02  3.73477601e-02  5.26802689e-02 -1.72602981e-02
    -1.68481335e-01  1.38335332e-01]
   [ 1.51058793e-01  1.16373226e-01 -4.08024378e-02 -3.91990179e-03
     4.17517908e-02  1.00422241e-02]]]


 [[[-7.53381923e-02 -9.79356319e-02 -8.85773078e-02 -1.06448345e-01
     1.11478351e-01  2.19059840e-01]
   [ 2.23265484e-01  1.02162778e-01 -9.11419764e-02  8.49630591e-03
     4.77113165e-02  2.16958374e-01]
   [-5.09178191e-02  1.47534415e-01 -9.03398991e-02 -8.20004866e-02
     1.92316487e-01  2.65148669e-01]]

  [[ 2.50366837e-01 -5.31225884e-03 -2.28541359e-01 -2.03678727e-01
     5.96498810e-02 -2.61405349e-01]
   [ 3.64393979e-01  3.12256105e-02 -3.18707466e-01  1.03081629e-01
     2.44876802e-01 -2.08978638e-01]
   [ 7.47345537e-02  6.39567226e-02 -1.87317237e-01  2.33354241e-01
     5.83744168e-01 -1.48591444e-01]]

  [[ 3.52730863e-02  3.95752311e-01  9.76387933e-02 -2.12642867e-02
    -8.10882598e-02 -7.19926730e-02]
   [ 1.83194548e-01 -5.42512275e-02  1.48361638e-01 -1.10908106e-01
    -3.91704924e-02 -2.18335301e-01]
   [ 5.76756969e-02 -2.53046334e-01  4.49360162e-02  1.57360733e-01
     6.23320460e-01 -2.02003330e-01]]

  [[ 1.49435639e-01  1.07286580e-01  1.61670431e-01 -2.57916395e-02
    -2.15869963e-01  1.54645130e-01]
   [ 1.14881240e-01 -6.06304780e-02  5.60952574e-02  6.18782640e-02
    -8.43742937e-02  1.13283262e-01]
   [ 5.59632778e-02 -2.12062806e-01  4.17496301e-02  1.63548246e-01
     3.18359435e-01 -1.00021005e-01]]

  [[-8.75792354e-02 -5.73343262e-02 -5.25776268e-05 -1.03691742e-01
    -8.15953463e-02 -9.75794643e-02]
   [-1.57843292e-01 -9.81940031e-02  8.83847773e-02  4.53775451e-02
    -1.92737117e-01  1.05227955e-01]
   [-1.45261407e-01 -2.22729430e-01  4.28378396e-02 -2.42664814e-02
    -2.27178678e-01  2.36578539e-01]]]


 [[[ 8.57227743e-02  1.85215950e-01  3.76676351e-01 -1.15802791e-02
     2.00262561e-01  2.28227586e-01]
   [ 5.31481691e-02  1.35121495e-01  2.54157901e-01  1.16264328e-01
    -9.00730193e-02  1.45597458e-01]
   [-1.65436223e-01  1.51120901e-01  3.34230691e-01  2.31170997e-01
     1.73433959e-01  2.89930314e-01]]

  [[-1.46966413e-01  1.56604871e-01 -2.42768914e-01 -3.10558617e-01
    -2.43825000e-02 -2.82428265e-01]
   [ 2.70877540e-01 -1.34357020e-01 -8.23649243e-02  1.52606443e-01
     9.85929072e-02 -1.89274773e-01]
   [-1.13428175e-01  1.94143318e-02 -2.62609810e-01  1.61245197e-01
     4.04797405e-01 -5.65544814e-02]]

  [[-2.34118551e-01  1.82320297e-01 -3.78438443e-01 -1.48684636e-01
    -9.36932024e-03 -2.18540296e-01]
   [-1.07533708e-01  6.69220462e-04 -2.37881556e-01 -1.18897617e-01
     1.21913599e-02 -3.27876270e-01]
   [-2.35132813e-01 -5.00778295e-02 -3.23205322e-01  3.83130699e-01
     3.21061134e-01 -2.59299338e-01]]

  [[-1.52860552e-01  1.37267992e-01 -3.24388267e-03 -1.86842218e-01
     3.52298655e-02  2.85098612e-01]
   [-1.66328084e-02 -2.98411623e-02  4.52179611e-02  1.07447706e-01
     5.37138283e-02  1.76040065e-02]
   [-9.78093669e-02 -1.72899067e-01  1.81918629e-02  7.06239417e-02
     7.97557980e-02  1.78278778e-02]]

  [[ 2.26486083e-02 -1.20025024e-01  1.83264658e-01 -1.27455547e-01
    -4.17231694e-02  1.13264062e-01]
   [ 1.11249529e-01  5.75166531e-02  1.98198959e-01  1.24403574e-01
    -2.77784821e-02  1.10502094e-01]
   [ 1.57073420e-02  1.10052384e-01  7.77497590e-02  3.22544634e-01
    -2.76293814e-01  1.44988149e-01]]]


 [[[-2.72845745e-01 -1.57250896e-01  1.86784908e-01 -6.91722184e-02
     1.26464397e-01  1.36722341e-01]
   [-2.96605974e-01 -1.36284426e-01 -1.12789094e-01  1.31761329e-02
    -1.55228958e-01  8.01932439e-02]
   [-1.53893709e-01  3.39347184e-01  1.34316325e-01 -6.56380691e-03
    -1.21063091e-01  2.31078729e-01]]

  [[ 3.14457901e-02 -5.67725301e-02  4.61083576e-02 -2.32497290e-01
     5.98068796e-02 -7.51745924e-02]
   [ 1.06833920e-01 -1.22383192e-01  2.44907826e-01  1.06590897e-01
    -7.88029935e-03 -1.78100407e-01]
   [ 1.32867336e-01 -3.35049746e-03  1.07526995e-01  8.76469463e-02
    -1.20049596e-01 -2.04365730e-01]]

  [[-2.98159778e-01  2.60883212e-01 -4.16130945e-02 -5.05199879e-02
     1.11988522e-01 -1.01547964e-01]
   [-3.12395751e-01 -1.96418554e-01 -1.27611279e-01 -4.67890315e-02
     3.08185965e-02 -2.75340557e-01]
   [-1.87501788e-01  3.86707559e-02 -9.70033277e-03  2.25633562e-01
    -6.33303076e-02 -1.76286355e-01]]

  [[ 1.35717317e-01  6.79862574e-02 -2.73788601e-01 -3.41096491e-01
     1.49161041e-01  1.68672353e-02]
   [-1.32577820e-02 -2.67636895e-01 -1.32955909e-01  3.79122160e-02
     4.17671874e-02  1.51453465e-01]
   [ 2.19080687e-01  1.12994589e-01 -3.34216714e-01  2.33436719e-01
    -1.48612693e-01  4.55250442e-02]]

  [[ 8.54183659e-02 -2.02200532e-01  1.35098724e-02 -1.65837273e-01
    -1.23880163e-01  1.01457231e-01]
   [ 2.18244530e-02  3.44991535e-02 -1.50486127e-01  1.09098181e-01
    -2.14480739e-02  1.07966989e-01]
   [ 1.89512614e-02  2.61149257e-01 -2.11359963e-01  2.33527437e-01
    -5.84731773e-02  1.28360927e-01]]]


 [[[ 1.38814911e-01 -3.59270245e-01 -1.34941250e-01 -1.72152147e-01
     2.08356813e-01 -6.70149922e-02]
   [ 7.93003887e-02 -4.41764481e-03 -2.05997407e-01 -9.01501328e-02
    -1.07334033e-02  1.56581830e-02]
   [ 1.44764706e-01  1.02452695e-01  1.59045123e-02  4.53341641e-02
    -3.02050740e-01  1.11064747e-01]]

  [[ 1.81924365e-02 -1.32826805e-01  1.59861609e-01 -1.81810692e-01
    -6.73260959e-03 -5.70751913e-02]
   [-1.21828474e-01 -2.82777816e-01  3.89323458e-02  1.23226233e-02
    -1.44773638e-02 -2.26466522e-01]
   [ 1.66460991e-01 -6.54127672e-02  2.40105093e-01  1.99303746e-01
    -1.36278328e-02  1.17893443e-02]]

  [[ 7.96695277e-02 -1.14743546e-01  2.01960191e-01 -2.98991233e-01
     1.15565136e-02 -1.55824587e-01]
   [ 2.82755252e-02 -3.23725641e-01  1.29379675e-01 -2.29613841e-01
     2.21948251e-02 -6.03870824e-02]
   [ 5.61892390e-02 -1.05243139e-01 -3.32118035e-03  2.77293801e-01
    -2.20880270e-01 -1.86847642e-01]]

  [[ 1.17377408e-01 -1.56524196e-01 -7.73527136e-04  1.75760202e-02
     9.75794345e-02  4.17803973e-02]
   [-8.66544917e-02 -9.52633191e-03  3.35442834e-02 -9.24398601e-02
    -2.67545860e-02  8.77627060e-02]
   [ 1.63301557e-01 -1.62217751e-01  1.92416742e-01  6.44453689e-02
    -1.18623167e-01  1.40572205e-01]]

  [[-7.00384602e-02  4.92320023e-02 -7.25708231e-02 -1.27083197e-01
     1.39040247e-01 -3.25281806e-02]
   [ 3.93029191e-02 -5.67476898e-02 -1.74010515e-01 -2.13999465e-01
    -7.09973201e-02  1.25973105e-01]
   [-1.30281508e-01  7.44996592e-02 -2.26512384e-02  1.28350094e-01
    -1.29287705e-01  4.50450666e-02]]]]
baseline/conv2d/bias:0
(6,)
[-0.0612914  -0.09878803 -0.05340112 -0.01543829 -0.01616253 -0.06526477]
baseline/batch_normalization/gamma:0
(6,)
[0.75763917 0.7487906  0.7213985  0.36569852 0.57856464 0.9628727 ]
baseline/batch_normalization/beta:0
(6,)
[-0.3666562  -0.3779775  -0.45508525  0.05899336 -0.29705608 -0.45474496]
baseline/dense/kernel:0
(1536, 128)
[[-1.19670387e-03 -4.70339842e-02 -7.94726461e-02  3.72819579e-03
   8.94419290e-03 -2.51912046e-02  9.29685403e-03 -5.25136739e-02
  -9.02075917e-02 -4.24530245e-02  8.18362236e-02  2.58161929e-02
  -3.29812914e-02 -8.35157745e-03 -2.62577713e-01 -1.26357600e-02
   2.51462962e-02 -3.91039364e-02 -2.67274231e-02 -6.84164464e-02
   7.52206594e-02  6.99185804e-02  1.55843562e-02  9.80227813e-03
  -2.32237428e-02 -5.70878275e-02  6.47428930e-02  5.02315499e-02
  -1.43483933e-02 -1.51831582e-01 -1.52102366e-01  9.85430032e-02
  -1.32475002e-03  6.18135780e-02 -6.51568025e-02 -1.96892265e-02
  -3.67531143e-02  1.37944877e-01 -1.43399881e-02 -4.45664860e-02
   1.13534173e-02  1.90487113e-02 -2.92827934e-02 -9.44030434e-02
   7.40611851e-02 -1.14713706e-01 -3.24822590e-02 -1.93470046e-02
  -6.04877323e-02 -1.85147487e-02  3.68371233e-02 -1.24472193e-02
  -8.87378752e-02  9.64561999e-02 -3.19800340e-02 -2.53636464e-02
  -2.68622413e-02 -7.09275305e-02 -7.13492483e-02 -5.28710671e-02
  -5.71093448e-02 -1.95735842e-02 -3.58509906e-02 -3.88768353e-02
   7.07966834e-02  6.75736507e-03  5.83626656e-03 -9.11358930e-03
  -5.79882823e-02 -6.21098876e-02 -9.19656157e-02 -3.02720144e-02
  -6.70891702e-02 -6.11262918e-02  8.97737294e-02 -2.24134494e-02
  -1.56068370e-01 -1.29208490e-02  3.45246168e-03  1.60510838e-01
  -5.28950989e-03 -1.84559915e-02 -1.59378126e-01 -3.46161537e-02
   1.13719646e-02 -3.88942286e-02  1.66986227e-01 -5.88646531e-02
   1.38479978e-01 -2.87454631e-02  7.76805207e-02 -1.04314737e-01
  -1.48124710e-01 -4.83297510e-03  3.47923934e-02 -8.61570835e-02
  -5.01587950e-02  1.01006359e-01 -5.91924265e-02 -5.86799160e-02
  -5.80016933e-02 -3.56773064e-02 -2.51268987e-02  4.18699570e-02
  -1.36235654e-02  9.95468535e-03  2.51284111e-02  9.55383778e-02
   3.76067124e-02  2.36791912e-02 -1.80196345e-01 -5.96810840e-02
  -7.07285479e-02  2.52421349e-02 -9.71421748e-02 -3.42243351e-02
   1.24967257e-02 -5.00619486e-02 -5.80686796e-03 -4.92045144e-03
  -9.90442839e-03  5.54795563e-02 -2.67452560e-02  3.66423745e-03
  -6.53472021e-02  2.88243201e-02 -6.18740804e-02  8.93955082e-02]
 [-1.06397867e-02  3.40184080e-04  2.87027806e-02 -5.95248155e-02
  -1.88503414e-01 -3.79629694e-02 -1.45434157e-03  4.88864444e-02
   1.91605732e-01 -5.27717620e-02  2.47316435e-01 -3.83625217e-02
  -2.67608557e-02 -1.88482925e-02  2.86388397e-02  9.70229693e-03
   5.68670370e-02 -4.93490137e-02 -2.31430102e-02  2.93524228e-02
  -1.76946878e-01  2.96010017e-01  5.08610345e-02  2.70729326e-02
   5.65208718e-02 -1.00389598e-02 -6.43232763e-02 -8.65253806e-02
   2.65736505e-02 -5.12566604e-02  4.78707515e-02 -3.10494721e-01
  -3.42083015e-02 -9.91711542e-02 -1.63426995e-02  5.95306512e-03
   9.52737126e-03 -1.05858125e-01 -2.55174726e-01  9.86738782e-03
   4.54513937e-01 -3.56780231e-01  3.03353854e-02 -5.35937101e-02
   2.53091790e-02  6.05330579e-02 -6.04936592e-02  2.73255575e-02
  -8.72295201e-02 -8.08596537e-02  1.79883000e-02  1.38420090e-01
  -2.29185056e-02  1.49869071e-02  5.07317483e-02  1.28641939e-02
  -6.48851618e-02 -3.30105759e-02  1.35106212e-02  6.07622303e-02
   2.77900323e-02  2.95539275e-02  2.70237904e-02 -9.70506761e-03
   2.13550888e-02  1.02497535e-02  4.52826582e-02 -2.46456593e-01
   5.42740189e-02 -4.85691875e-02  1.10020287e-01 -2.82784794e-02
   6.00164756e-03  3.60152125e-02 -6.64266199e-02  2.00066239e-01
   3.59161824e-01 -1.95267666e-02 -3.98269668e-02 -2.12557793e-01
  -3.65610532e-02 -3.32555681e-01  8.21519718e-02  1.98190305e-02
   1.34355808e-02 -3.12319789e-02 -2.00157225e-01 -3.87489535e-02
  -5.59984148e-02  1.22390334e-02  8.09435099e-02 -2.93211900e-02
  -4.38622832e-02  3.04334313e-02  6.90118819e-02  6.13043271e-02
   4.02722731e-02 -1.06345564e-01  2.66578700e-02 -1.51052782e-02
   1.60799436e-02 -1.32475914e-02 -2.67662555e-01 -3.40962678e-01
   5.30828126e-02  2.94691902e-02  1.23546151e-02 -7.81790093e-02
  -1.56131551e-01  5.52038923e-02 -1.76610742e-02 -4.31390405e-02
  -1.86883196e-01  3.86993848e-02  3.02622840e-02 -2.78424956e-02
  -5.98020516e-02 -2.01934613e-02  1.25953093e-01 -2.19172463e-02
  -6.54178998e-03 -3.87390181e-02 -7.45194498e-03 -1.17629860e-02
  -2.99825501e-02 -4.75455493e-01  8.87914002e-03 -1.42414168e-01]
 [ 1.04711938e-03  3.18191759e-02 -6.18248545e-02 -7.02822581e-03
  -9.52797979e-02 -3.98031883e-02 -6.34547742e-03 -8.37175362e-03
  -8.73312503e-02 -6.68990910e-02  1.70296654e-01  1.80612542e-02
   1.37198120e-01 -2.82541607e-02  1.55524686e-02  8.65203980e-03
  -3.24439146e-02  6.08249456e-02 -7.26549327e-02 -3.34833339e-02
   1.22445732e-01 -1.37139624e-02 -3.98070924e-03 -2.13426314e-02
   3.15756649e-02  9.01583284e-02 -9.98717099e-02 -1.17017776e-01
  -8.48728698e-04 -4.63831127e-02 -7.87478685e-03 -1.89941287e-01
   2.83811726e-02  1.65328309e-01 -3.88582498e-02  4.50946726e-02
   4.51180190e-02 -1.46638289e-01  8.52108896e-02 -4.65502962e-02
   1.92742199e-01 -1.39532611e-01  4.09064628e-02 -5.49760871e-02
  -2.20693380e-01 -1.28274038e-01 -3.98369431e-02  3.17773111e-02
   2.54420862e-02  1.94615006e-01  2.15016335e-01  1.36333466e-01
   3.52299027e-02 -1.89165294e-01 -2.03792732e-02  1.96485408e-02
  -3.62565890e-02  3.47273126e-02  4.93309321e-03  3.55351903e-02
  -1.39215328e-02 -2.65355222e-02  3.66805382e-02  8.39032885e-03
  -1.46085769e-01 -5.49907759e-02 -3.96797545e-02 -2.57406712e-01
  -9.96421054e-02 -2.57782079e-02  8.63246396e-02  3.75088048e-03
   4.80733216e-02 -2.01416425e-02 -3.71564664e-02 -2.42352486e-01
   3.09514880e-01  1.90810278e-01 -3.92124243e-02 -2.31042057e-01
  -5.11100702e-02 -3.17165345e-01  6.51742890e-03 -8.87180045e-02
   1.55567303e-02  3.05215153e-03 -1.33157760e-01 -1.08872522e-02
  -1.06139435e-02  1.45436376e-01 -1.14090495e-01  6.38306662e-02
   3.38043869e-02 -4.07547913e-02 -1.70117561e-02 -5.07984012e-02
   3.28155197e-02 -6.44287691e-02  3.51966284e-02  3.89812626e-02
  -3.79169099e-02 -2.56110914e-02 -2.46909652e-02 -2.17100173e-01
  -3.15508731e-02  1.01859830e-01  1.04746997e-01 -2.54093230e-01
  -1.20197991e-02 -5.04438505e-02  2.23418162e-03 -5.90797402e-02
  -6.42332248e-03 -1.66852828e-02  2.69175787e-03 -5.12438156e-02
  -1.20925978e-02 -8.38888213e-02 -2.96507031e-01 -5.83029389e-02
  -4.63053957e-02  4.48304974e-02 -9.18508042e-03 -5.77503927e-02
  -6.56069070e-02 -3.04046303e-01 -6.62446022e-02 -1.07932627e-01]
 [-5.44103943e-02 -2.23613456e-02  8.13215896e-02 -4.99986224e-02
   3.29159312e-02  5.90440910e-03  9.11606662e-03  3.47272749e-03
  -2.01774458e-03 -4.10231948e-02 -7.84139931e-02 -7.94797204e-03
   1.81025580e-01  4.06402536e-02  3.03287338e-02 -7.07321391e-02
  -9.24560148e-03 -1.14691292e-03 -2.62409803e-02 -2.85903867e-02
  -7.46952519e-02 -1.19686043e-02 -3.49255949e-02 -5.83757497e-02
  -7.18903765e-02 -1.18101097e-03 -1.15810551e-01  1.44372284e-01
   4.54763733e-02 -1.07779548e-01  4.00613509e-02  4.57627550e-02
   4.55502011e-02 -6.49926532e-03 -4.44910787e-02 -7.66522586e-02
   1.47423362e-02 -4.62807827e-02 -3.06137763e-02  5.34826256e-02
  -6.78143427e-02  1.03579229e-02  3.34105417e-02 -1.12597898e-01
  -6.54881373e-02  1.09334394e-01  9.00469255e-03 -1.33104501e-02
  -7.60426000e-02 -2.14326277e-01 -1.33028835e-01  1.58397760e-02
  -2.17211363e-03 -4.95857932e-02  3.53703834e-02 -6.10819198e-02
  -3.48620266e-02 -4.74558920e-02 -9.45026428e-03 -3.34318057e-02
   5.07134646e-02 -6.38141111e-02 -1.31854936e-02 -6.62782714e-02
   9.79475826e-02  1.31954569e-02  3.31181288e-02  6.99680448e-02
  -4.13869694e-03 -6.29616827e-02 -1.19490743e-01 -6.73709139e-02
   5.04613342e-03  2.73823296e-03 -6.48950636e-02  7.49268979e-02
   4.67216969e-02 -6.08975925e-02 -6.43253699e-02  3.15291472e-02
  -2.20335107e-02 -2.15359434e-01 -1.10693149e-01  9.52511802e-02
   9.50629264e-03 -3.99972945e-02  6.63134977e-02  8.57274309e-02
   2.33127668e-01 -6.65199105e-03 -9.31425244e-02 -1.23133466e-01
  -6.60370663e-02 -7.57350177e-02 -1.90755762e-02  5.71124908e-03
  -1.37343141e-03  3.64958532e-02 -4.90819775e-02 -2.16022767e-02
  -5.54746538e-02 -3.97731550e-02 -4.12690490e-02  1.08684540e-01
   2.75078714e-02  3.48496288e-02  3.88192050e-02  6.22033849e-02
   3.14732082e-02 -7.06881657e-02 -1.98434845e-01 -4.83135767e-02
  -7.98815787e-02 -7.51865432e-02 -3.44975665e-02 -3.30285951e-02
  -2.08531078e-02  1.90358967e-01  7.38013238e-02 -2.15777406e-03
   1.44409500e-02 -3.30992825e-02 -5.02022766e-02  2.00833045e-02
  -2.46542525e-02  1.65621623e-01 -8.85775778e-03  1.99125111e-01]
 [ 4.29154225e-02 -6.77369460e-02  2.58526444e-01 -4.01157588e-02
  -9.69556049e-02  4.38691266e-02  5.24451062e-02 -2.50360481e-02
  -5.72186783e-02 -2.34098155e-02 -3.94655764e-02  4.61163744e-02
   4.52942371e-01 -8.39195251e-02 -8.40411782e-02  4.90715168e-02
  -9.99490470e-02 -4.92344089e-02 -4.61950824e-02 -6.67223185e-02
  -1.82446554e-01 -2.56855581e-02 -5.75300641e-02  3.44508104e-02
  -8.21005180e-02 -1.00634329e-01 -1.65244535e-01  8.64918716e-03
  -5.78596704e-02 -1.55435130e-01  3.04203220e-02  1.45851955e-01
   2.54577771e-02 -3.18710864e-01  4.02431041e-02  3.25031765e-02
  -4.86877449e-02 -3.51025462e-02 -2.56071636e-03 -1.63657404e-02
  -2.40109146e-01 -1.31309733e-01  1.79253779e-02 -6.14781082e-02
  -1.91303477e-01 -1.96757570e-01 -2.75134929e-02 -2.52387356e-02
   4.07214127e-02 -1.82073012e-01 -3.07486504e-01  1.07089266e-01
  -3.45639735e-02 -3.27790648e-01 -3.94246634e-03 -5.45651093e-02
   1.61566157e-02 -1.72704943e-02 -5.18710911e-03 -1.50800198e-02
  -4.06067967e-02 -3.28954495e-02 -5.37434183e-02  7.26495683e-02
  -1.22201696e-01 -1.84463635e-02 -5.20043597e-02  1.86516955e-01
  -1.55581469e-02  5.04065640e-02  8.37375596e-02 -1.86485536e-02
   2.73999006e-01  4.40713726e-02 -3.24696414e-02 -4.65304285e-01
  -1.74442604e-02 -8.68552700e-02 -5.57838939e-02 -5.59984922e-01
   9.25505254e-03  9.62796733e-02  3.25924009e-02  2.64658570e-01
  -1.61457267e-02  1.65220648e-02 -4.38880116e-01 -2.07708478e-01
   2.75958747e-01  1.30630866e-01 -4.34931844e-01 -5.10260202e-02
   3.73233669e-02  2.32613850e-02 -7.78054744e-02 -8.78860280e-02
   2.17185877e-02 -2.81305611e-01 -4.10161838e-02  1.47652090e-01
  -4.87383194e-02 -1.61309354e-02 -1.84772998e-01  2.49572664e-01
  -2.70245224e-02 -8.53793398e-02 -1.63494587e-01 -2.74083521e-02
  -3.55341956e-02 -1.95561498e-01 -4.24876250e-02 -1.26232803e-02
  -3.66269611e-02  2.92935804e-03  6.31243885e-02 -4.51599956e-02
  -2.99810227e-02  4.75887567e-01 -1.02212792e-03 -6.65727556e-02
  -5.74359149e-02  1.20454229e-01  3.99913872e-03 -4.29995805e-02
   8.27098265e-04 -1.39783368e-01 -5.36505654e-02  2.75562674e-01]
 [-4.66939062e-02 -2.99927276e-02  1.44315332e-01 -2.64190324e-02
  -1.83358446e-01  1.06231142e-02 -5.12291566e-02 -5.56392483e-02
   2.29372885e-02  2.12973487e-02 -1.15382411e-01 -3.82828489e-02
  -1.09890372e-01  4.43731807e-02  1.81005746e-02 -5.44310212e-02
   3.91669907e-02 -2.76744384e-02 -1.10666174e-02  4.36927788e-02
  -9.65586230e-02  1.09045677e-01  2.00480353e-02 -2.67664827e-02
  -3.72949452e-03  3.33617139e-03 -1.47872537e-01  2.29361773e-01
  -4.24690582e-02 -7.67211393e-02  2.81082869e-01 -2.28855968e-01
   2.25716643e-02  1.36641607e-01 -2.58038603e-02 -8.72585922e-03
   1.67169198e-02  3.35728191e-02  4.71592769e-02 -2.33671721e-02
   2.05540657e-01 -5.91095909e-02  4.34018895e-02  1.19168639e-01
  -4.99867573e-02 -8.60399231e-02  3.93206030e-02  1.10343902e-03
   9.95156541e-03  2.80423284e-01  1.78486034e-01  1.86096102e-01
   2.26349123e-02 -2.46351644e-01 -3.15228999e-02  6.85928240e-02
  -3.63409743e-02 -2.51846835e-02  3.92119661e-02 -6.42455295e-02
  -5.85374050e-02  4.84263077e-02  3.44129167e-02 -3.46416831e-02
  -2.78875202e-01 -7.17426091e-03 -2.45418902e-02 -6.51136786e-02
   7.19783967e-03 -2.65608393e-02  6.18965030e-02 -5.51674329e-02
   1.57617718e-01 -2.08096020e-02 -1.16559394e-01 -9.14703682e-02
   1.14621520e-01  2.73437768e-01  1.22003173e-02 -8.97641927e-02
  -6.41319230e-02  3.27864587e-02 -6.61262795e-02  3.68990272e-01
   1.30709903e-02  1.41933393e-02 -3.31516452e-02  1.19586132e-01
  -1.35710165e-01  1.71233281e-01  1.98190540e-01 -9.45517495e-02
  -1.07633770e-02 -1.03247054e-01 -2.29398068e-02 -7.52650276e-02
   3.94381247e-02 -1.62152573e-01 -3.73473130e-02  3.20557831e-03
   2.82319449e-02  4.14105393e-02  8.20622221e-03 -5.07995337e-02
  -1.07672606e-02  1.09330155e-01  2.73128390e-01  1.24225363e-01
   5.55409230e-02  3.07107437e-02  4.52187173e-02 -1.43716028e-02
   2.94991940e-01 -2.43787915e-02 -5.81862871e-03 -5.27762733e-02
   2.83788275e-02 -1.60122782e-01 -2.10604608e-01 -4.50786315e-02
   5.30390330e-02  2.65504718e-02 -2.33664294e-03 -5.88594563e-02
  -1.98246539e-03 -3.51695329e-01  1.79538522e-02 -5.87892793e-02]
 [-7.01294988e-02 -7.45049343e-02  3.21463197e-02  2.42401101e-02
  -1.05963603e-01 -7.27257654e-02 -2.87138131e-02  3.09502967e-02
  -1.33571878e-01 -5.85819688e-03  2.03075279e-02 -4.79345843e-02
  -9.45467949e-02 -3.26246172e-02  4.50564176e-02 -3.86645757e-02
   1.63123626e-02 -5.83013967e-02  1.86257865e-02  1.21420668e-02
   2.57432163e-02 -7.59940520e-02 -2.41436176e-02  4.01067594e-03
  -1.68904383e-02 -3.07181895e-01 -8.61297548e-02  9.66357589e-02
   2.57144514e-02 -9.94340926e-02 -5.46352491e-02  1.70267224e-01
  -5.46488957e-03 -1.66702606e-02 -2.52168607e-02 -2.75397729e-02
  -1.32067204e-02 -4.62313034e-02 -1.35854140e-01  7.65697099e-03
  -6.16951324e-02 -3.87841277e-02 -2.24443339e-02  5.28310146e-03
   3.01247891e-02  2.59079933e-02 -5.50582670e-02 -5.45299565e-03
  -6.37701973e-02  5.24898618e-02  2.13569164e-01 -1.47507321e-02
  -1.69645045e-02 -1.42549723e-02  8.48703645e-03  3.01850904e-02
  -6.35122061e-02 -5.19731715e-02 -4.19613682e-02  3.44284214e-02
  -3.84222418e-02  7.20378244e-03 -5.26930951e-02  4.24094200e-02
  -1.15165934e-01  3.52117233e-02 -3.99321541e-02  4.61979657e-02
  -4.64563109e-02 -3.48399207e-02 -6.86022826e-03 -6.23625480e-02
  -1.55843142e-02  2.91270316e-02  1.31480466e-03 -2.71594465e-01
  -1.89008731e-02  2.34478954e-02 -5.68472892e-02  9.95749459e-02
  -5.43502979e-02 -1.51506858e-02 -5.24026528e-02  2.52783671e-02
   1.02567459e-02 -4.56819199e-02  3.43864299e-02 -1.41501129e-01
   5.01856804e-02 -3.69670726e-02  5.55750653e-02 -9.43157822e-02
  -7.43680671e-02 -5.97239994e-02 -9.06950682e-02 -1.13808230e-01
  -4.13685367e-02  1.42194673e-01 -7.63600618e-02  1.39365736e-02
   1.14984903e-02  1.66714080e-02  2.74037458e-02 -4.69767787e-02
   1.71064045e-02  7.58904889e-02  8.10009092e-02 -5.80363385e-02
   1.70918614e-01 -2.40925662e-02 -4.01289016e-02  8.64230446e-04
   4.38551791e-02 -1.77432224e-02 -5.38158929e-03 -2.69097202e-02
  -1.36859939e-02  4.83459495e-02 -7.51188397e-02 -1.28722843e-02
   7.92855173e-02 -5.55255637e-02 -9.93262306e-02 -5.20405583e-02
  -4.71608154e-02  8.20640698e-02 -2.96637472e-02 -4.72868457e-02]
 [ 8.80366098e-03 -1.92510094e-02  5.80403358e-02  1.79523285e-02
  -1.64858371e-01 -5.84464110e-02  3.83392349e-02  4.28993590e-02
   1.36955664e-01 -1.33351116e-02 -7.18203112e-02 -2.04301719e-02
  -1.66013092e-01 -1.43242022e-02 -7.64666647e-02  2.04588901e-02
   3.66601199e-02 -2.50261612e-02 -4.94107492e-02  3.41463126e-02
  -1.83861509e-01  3.33836749e-02  1.65094454e-02  2.92345462e-03
   1.46181099e-02 -3.99145123e-04 -3.01343292e-01  5.66405952e-02
   4.10467014e-02 -2.79010348e-02 -4.98596951e-02 -2.97136791e-02
   3.11859157e-02 -3.93086076e-01 -2.56233402e-02 -9.50380880e-03
  -6.39900267e-02  1.46730810e-01 -2.16255821e-02 -5.15231267e-02
   1.62191764e-01 -1.09291546e-01 -2.29767412e-02 -3.86883676e-01
   2.40158532e-02  2.69987453e-02 -4.09649350e-02  3.29857669e-03
  -9.00027752e-02 -1.21284679e-01  1.86667219e-02 -1.54981911e-01
   4.52523539e-03 -1.81897413e-02 -6.12192266e-02  2.94545665e-04
  -6.23286664e-02  4.79138792e-02  3.12005468e-02  5.65871820e-02
   1.52809033e-02 -4.80860565e-03 -2.91017797e-02  4.16397257e-03
  -8.23860243e-02  4.41963300e-02 -4.37682830e-02 -2.19702423e-01
  -3.41684148e-02 -2.50611864e-02 -4.79197465e-02 -1.26211904e-03
   6.55652583e-02  2.36279890e-02 -2.01622292e-01 -4.64668274e-02
  -8.09709132e-02  9.88394171e-02 -5.89010566e-02 -2.18471229e-01
   4.29768041e-02 -1.72894463e-01 -8.49171504e-02  2.31753383e-02
   2.81749014e-02 -7.49560148e-02 -2.09622756e-01 -1.14937678e-01
  -3.19612883e-02 -1.89499240e-02  3.17801870e-02 -2.07197983e-02
   8.26071799e-02 -6.69293627e-02 -1.02448901e-02  6.38991548e-03
  -4.29897793e-02  1.82861015e-01  1.51135400e-02 -1.68365985e-01
  -1.64644569e-02  7.38901878e-03  7.69517049e-02 -2.87200630e-01
  -3.35721485e-02  3.96971628e-02 -8.05873051e-02 -7.23134577e-02
  -3.75515312e-01 -1.52446792e-01 -8.55489001e-02 -2.84069832e-02
   1.23750657e-01 -2.52834596e-02  3.99683379e-02 -2.16203202e-02
   4.45354320e-02 -2.93618321e-01  3.07924151e-01 -2.56919600e-02
   9.30930674e-02 -1.83345303e-01 -1.93555709e-02 -4.08529229e-02
   1.64773986e-02 -3.44850838e-01  2.82464232e-02 -3.93992364e-02]
 [-4.01366651e-02  1.22098466e-02  3.77716422e-02 -4.57829684e-02
  -1.22562245e-01  1.39258103e-02  2.09845062e-02  2.17108689e-02
   5.87943271e-02  3.47174332e-02  1.57828927e-01 -1.34374108e-02
   1.20413855e-01  3.89785394e-02 -1.14311844e-01 -4.36093993e-02
  -5.46923988e-02 -6.34723678e-02  1.85518786e-02 -5.36697730e-02
   1.87750816e-01  1.07075192e-01  2.21272614e-02 -6.74571544e-02
   2.99624894e-02 -2.85352934e-02 -8.24403465e-02 -5.86127229e-02
  -5.88214770e-02  3.05498019e-02 -1.91414896e-02  2.59268969e-01
   2.07420662e-02 -2.59093493e-01  8.00528284e-03  2.08431520e-02
  -6.35788217e-02 -9.89189297e-02  2.73412853e-01 -2.87071560e-02
   7.01567233e-02  7.32898712e-03  3.45089883e-02  1.36958882e-01
  -8.48791283e-03 -3.28465365e-02  3.84666845e-02 -3.54106724e-02
   7.64181605e-04  1.00507654e-01  9.93201043e-03  1.66913584e-01
  -5.76113425e-02 -1.39742687e-01 -6.98009953e-02 -1.01251431e-01
  -8.68368521e-03 -5.41663654e-02 -4.42269910e-03 -6.14487752e-02
  -5.70961721e-02 -4.09004502e-02 -4.73964363e-02 -4.56596389e-02
  -1.31429538e-01  2.31885798e-02 -4.39883508e-02  2.42514517e-02
  -8.05151537e-02  1.34171173e-02 -1.08223714e-01 -1.30050117e-02
   6.08215183e-02 -6.57503232e-02  7.02797994e-02 -4.16445686e-03
   4.29592952e-02  7.08570033e-02 -2.08429471e-02 -1.02595918e-01
   1.05712600e-02 -7.96025321e-02  2.05962896e-01  1.73001140e-01
  -4.97693233e-02  1.48822591e-02 -1.13635331e-01 -2.18684990e-02
  -3.51458907e-01  9.70829725e-02  8.01252872e-02 -7.81897008e-02
  -3.48023660e-02 -4.73818965e-02  3.46940234e-02 -7.06713647e-02
  -6.45730048e-02 -1.94374602e-02 -3.83644067e-02  1.10782221e-01
  -8.91787466e-03 -6.47845268e-02 -8.83773863e-02 -8.11962336e-02
  -1.08304387e-03 -9.06497240e-02  1.68270320e-02 -7.37096742e-02
   1.09100446e-01  6.38541728e-02 -9.91162658e-03 -3.52111943e-02
   1.89224680e-04 -1.13419406e-02 -1.11300230e-01 -8.07883870e-03
  -8.31846222e-02 -2.21939161e-02 -1.29559487e-02  4.57266904e-02
   1.40354723e-01  1.15850300e-01 -1.04141617e-02 -3.68721187e-02
   2.87949201e-03 -1.92828979e-02 -2.24317517e-02  1.07403986e-01]
 [-5.15930951e-02  1.34760998e-02  8.82313997e-02 -3.32100242e-02
   6.41849861e-02 -7.65902027e-02  3.04779061e-03 -7.09071308e-02
   1.24908192e-02 -3.26350965e-02 -1.26988381e-01 -6.47228360e-02
   1.24747992e-01 -3.77660468e-02 -6.57383576e-02 -5.61334863e-02
   4.84993607e-02 -6.75098598e-03  5.30991098e-03 -3.16935442e-02
  -5.60103245e-02  1.18225450e-02  3.03579327e-02  1.72348451e-02
   3.45663950e-02 -6.78607076e-02 -6.65264279e-02  3.45097706e-02
  -6.32243678e-02  2.47781575e-02 -1.32797450e-01  9.87440348e-02
   4.05918770e-02  7.95627665e-03 -1.76722836e-02 -1.31577710e-02
  -6.03939826e-03 -1.74207881e-01 -1.53254092e-01 -2.20571160e-02
   1.00623153e-01 -2.60882545e-02 -2.62136087e-02 -1.64619684e-01
  -1.50574952e-01 -4.52876985e-02 -1.35944402e-02 -5.95295578e-02
  -5.57980761e-02 -2.15193480e-01 -5.37590310e-03  6.89053908e-03
   9.65709053e-03 -1.92731991e-01  2.73073814e-03 -5.79440445e-02
  -9.97863431e-03 -2.54750215e-02  1.49236256e-02 -5.59804589e-02
   7.14538898e-03 -3.60214189e-02 -2.25032866e-02 -1.87595300e-02
   5.91651648e-02  1.63987149e-02  3.91097628e-02 -1.39743993e-02
  -6.92517832e-02 -1.21877622e-03  5.36840037e-02 -2.99746674e-02
  -9.81181338e-02  8.78536794e-03  6.44573849e-03  8.60790759e-02
   1.66602130e-03 -5.87217230e-03  1.00357030e-02  2.62150764e-02
   1.57396673e-04 -2.15128914e-01 -5.19891502e-03  1.45424558e-02
  -1.72668118e-02 -4.53603640e-02  8.67865160e-02  2.70936321e-02
   1.80937335e-01  4.61688973e-02 -1.08369976e-01 -1.69091418e-01
  -1.06507242e-01 -9.08591151e-02 -2.88060643e-02 -1.24486908e-01
  -5.50314263e-02  3.12244836e-02 -4.59697433e-02 -4.74927202e-02
  -5.80154285e-02 -4.43859585e-02 -2.73397475e-01  6.11652471e-02
  -1.80906896e-03 -6.58326969e-02  6.22870028e-02  1.65484250e-01
   5.72844557e-02 -5.85122034e-02 -1.97563291e-01 -3.71183231e-02
   2.71738805e-02  3.85172926e-02 -3.17672826e-02  2.99858544e-02
  -6.04251884e-02  1.08933344e-01  6.22784370e-04 -1.31736174e-02
  -5.53202033e-02  1.19202733e-01 -3.97804044e-02  5.06813787e-02
  -6.26406223e-02  1.44978657e-01  3.07297017e-02  7.44787604e-02]
 [-5.82612352e-03 -8.58283229e-03  2.15052478e-02  1.42848743e-02
   6.20172286e-05 -1.53754679e-02 -6.07813559e-02  3.66656967e-02
   5.84218949e-02  2.97810487e-03 -3.54313254e-02  3.00762374e-02
   1.84547797e-01  4.78161545e-03 -1.77147001e-01  4.35653795e-03
  -7.81127736e-02  3.04708276e-02 -6.90046549e-02  4.30599181e-03
  -2.46583968e-01 -7.48045594e-02  2.18100492e-02 -3.26632261e-02
  -8.55338946e-02 -6.67388514e-02 -8.00129399e-02 -6.56337142e-02
   5.04899397e-02 -1.13067716e-01  6.31517842e-02 -3.52156796e-02
  -1.71214174e-02 -7.51642585e-02  5.13168313e-02 -4.26617935e-02
   1.15965661e-02  6.53961822e-02 -2.49728952e-02 -1.96537096e-02
  -5.27043529e-02 -9.04119536e-02 -6.73031285e-02 -1.36184841e-02
  -2.25856587e-01 -1.24757335e-01  2.46872697e-02 -4.96430881e-02
  -6.61253110e-02 -1.69782236e-01 -4.32539791e-01  6.36096746e-02
  -6.25345856e-02 -7.98217505e-02  3.13314460e-02 -6.51236102e-02
   1.96603835e-02 -1.12984097e-02  8.88733286e-03 -3.42574529e-02
  -6.28811568e-02  4.49816696e-02 -3.65955122e-02  8.84746108e-03
   2.61193700e-03  2.74191611e-02 -3.06677241e-02  4.91459854e-02
   1.90580320e-02 -3.64945270e-02  1.83122069e-01 -3.91620994e-02
   1.07177421e-01  1.35224871e-02  4.28272970e-02 -1.97270021e-01
  -1.61911801e-01 -7.49182850e-02 -5.62540144e-02 -7.45246857e-02
  -6.38682395e-02  6.69607073e-02  8.00149292e-02  4.59045172e-02
  -8.01596045e-03 -2.46481635e-02  5.18626459e-02 -1.22030646e-01
   2.09914505e-01  1.80904083e-02 -3.77396762e-01 -1.64696982e-03
   3.36398222e-02  8.17361474e-03  2.14690343e-02 -4.75688204e-02
  -4.51509990e-02 -1.00790538e-01  1.10979620e-02 -9.44311358e-03
  -5.66684268e-03  4.57473062e-02 -4.80218120e-02  1.48759425e-01
  -4.29768190e-02 -8.10355006e-04 -1.12058416e-01  1.85437426e-02
  -1.00339338e-01 -1.46463141e-01 -1.11810699e-01 -4.97866906e-02
  -4.17166129e-02 -3.98736559e-02 -6.74118400e-02  4.74319570e-02
  -1.81509424e-02  2.16879800e-01  5.65360375e-02  4.94689904e-02
  -1.56772714e-02  4.39574718e-02  2.46181488e-02 -6.64197356e-02
   3.93434875e-02 -7.68017843e-02 -6.05618916e-02  3.52603912e-01]
 [-5.06330095e-02 -4.86201681e-02  1.64682746e-01  5.67629701e-03
  -5.55195883e-02 -4.32212949e-02  3.10936477e-02  5.31970710e-02
  -3.23405415e-02 -5.81280924e-02 -1.54288307e-01  8.98362324e-03
   4.47321916e-03 -2.07679644e-02 -4.48987894e-02 -2.81528421e-02
   4.00129221e-02 -1.05945319e-02  1.25209251e-02  1.21147111e-02
   2.26612631e-02 -2.97411352e-01  1.29762162e-02  3.39450352e-02
  -6.63042963e-02 -2.32265089e-02  1.50577977e-01 -1.04872465e-01
   3.52360383e-02 -1.14634909e-01 -5.53927831e-02 -7.33409226e-02
  -2.28801575e-02 -2.95742184e-01 -3.09896339e-02 -5.06447516e-02
  -1.17635829e-02 -2.17650548e-01 -5.56816161e-02  2.71153059e-02
   1.10727161e-01  1.38681054e-01 -5.98688051e-02  2.73332708e-02
  -6.97591528e-02 -5.11794426e-02 -5.94304912e-02 -6.86902329e-02
  -4.92737070e-02  6.31719604e-02  6.46220520e-02  6.66975453e-02
  -5.28271273e-02 -2.44677179e-02 -2.19416898e-02 -2.93149166e-02
  -2.39162166e-02  2.59201117e-02 -4.86191502e-03  1.52527373e-02
   3.56469490e-02 -1.69306453e-02 -4.02097069e-02  5.08732535e-02
  -9.56858397e-02 -3.25650983e-02  3.42917778e-02  2.42810678e-02
  -5.05679706e-03 -4.49480638e-02  1.95419699e-01  3.58900130e-02
   5.87000977e-03  8.80706683e-03  7.85885900e-02 -2.70792156e-01
   5.76281957e-02 -8.02455395e-02  2.07235143e-02 -3.23136330e-01
  -3.13107371e-02 -6.83061033e-02 -3.33880000e-02  9.89339203e-02
   5.24373259e-03 -9.09640193e-02  6.11720495e-02 -1.00791249e-02
  -2.17799798e-01 -1.86439157e-01  4.69406688e-04 -1.16385646e-01
  -1.33492976e-01 -6.00848012e-02  5.67448586e-02 -2.17745844e-02
  -6.32771030e-02 -5.08046672e-02  2.78244726e-02  2.32772946e-01
  -2.46360581e-02  5.04507497e-02 -7.66971707e-02 -1.68822154e-01
  -1.65495798e-02  2.08684057e-02  2.19079748e-01  1.18566364e-01
   4.06318232e-02 -1.73540991e-02  7.00071529e-02 -5.68058193e-02
   7.72395283e-02 -6.11377619e-02 -5.27792759e-02  5.09446580e-03
   3.12160645e-02 -3.40446495e-02  7.21968636e-02 -2.27999091e-02
   1.19399233e-02  7.45081082e-02 -5.77004030e-02 -8.56861193e-03
  -3.17393206e-02 -1.67016029e-01  4.72519808e-02  8.86334851e-02]
 [-4.56695892e-02  3.24054132e-03 -1.04968008e-02  3.39876972e-02
  -1.34454012e-01 -4.70214225e-02 -1.06709730e-02 -6.13683164e-02
  -7.85381794e-02 -6.52287751e-02 -3.09020560e-02 -4.74332757e-02
  -1.97047070e-02  3.53422873e-02  2.15676636e-03  1.35622732e-02
  -6.15694420e-03 -2.87406296e-02 -4.11151759e-02  2.65578553e-02
   7.41152689e-02  4.36970405e-02 -1.80151202e-02  2.10252823e-03
   2.40650587e-02 -1.47737965e-01  6.46971837e-02  1.00656554e-01
  -1.01264473e-02 -1.58241522e-02 -2.59764306e-02  6.98784515e-02
   2.06652824e-02  2.15930007e-02 -5.00662215e-02 -4.88788225e-02
   1.78137179e-02  8.45412388e-02 -6.11550510e-02 -4.30684052e-02
  -1.39787182e-01 -2.59572268e-02  2.52914112e-02  1.43452108e-01
  -4.66774926e-02 -5.27431956e-03 -7.61669651e-02  5.26064029e-03
  -1.92256272e-02  1.45149648e-01  1.65828973e-01  5.68124428e-02
  -2.87717730e-02 -6.60023093e-02 -6.75975904e-02 -8.08278322e-02
  -6.50013834e-02 -4.58665416e-02 -4.44008969e-04 -5.59364446e-02
   1.31837238e-04 -7.14178681e-02 -2.88870446e-02  2.44368240e-02
  -6.14066944e-02  2.29779091e-02  1.53125981e-02  5.33428229e-02
   1.10474918e-02 -6.10847287e-02 -1.34871393e-01  2.67075412e-02
  -4.43565547e-02  4.55987379e-02  8.45371932e-02 -1.10893726e-01
  -1.20825823e-02 -5.34139052e-02  4.77769561e-02 -4.06318940e-02
   3.94365378e-02  7.17348084e-02  1.03245163e-03  8.95200074e-02
  -3.53788100e-02 -6.00791955e-03  1.00322656e-01  1.24162801e-01
   7.84556493e-02  4.52618264e-02  6.27698600e-02  4.36493754e-02
  -1.92963123e-01 -1.11564109e-02 -5.75818904e-02 -5.50173558e-02
  -4.56004143e-02  4.76069450e-02 -3.93308587e-02 -7.24640265e-02
   3.63588072e-02  9.19004995e-03  3.55456099e-02 -3.63138616e-02
   2.24464387e-02  1.21978775e-01 -4.22837213e-02  8.53534415e-02
   9.15707946e-02 -7.23798061e-03 -1.42710898e-02 -7.55071491e-02
  -3.97464596e-02  1.36464639e-02 -4.32681888e-02 -5.87791242e-02
  -7.03328550e-02  6.54811263e-02 -7.06597343e-02  6.04357198e-03
  -2.15933975e-02  2.32815202e-02 -1.05094502e-03 -1.44067602e-02
   4.02429840e-03  1.14895083e-01 -5.99709675e-02  1.00721404e-01]
 [-7.00844005e-02 -2.18226500e-02 -1.06384270e-01 -6.72472641e-02
   1.02985643e-01  4.70020883e-02 -5.60036302e-02 -5.06622978e-02
   9.67915580e-02  2.96237543e-02  1.07798442e-01 -7.78370770e-03
  -1.62205286e-02  1.50369387e-02  6.67557791e-02  4.19296362e-02
  -6.94181444e-03 -4.58449498e-03 -6.40482157e-02 -5.08524105e-03
  -1.84795223e-02 -3.99621911e-02 -6.50419816e-02 -5.68969212e-02
  -6.79450780e-02  2.74810176e-02 -4.15700018e-01  1.40363351e-01
   1.20023713e-02 -5.39739765e-02 -8.32695439e-02  6.91110939e-02
  -5.31058796e-02 -1.44323215e-01  7.29030417e-03 -2.12924592e-02
   5.16567118e-02  6.13221191e-02 -5.78200109e-02  1.10466601e-02
   1.80470526e-01 -2.58287638e-01  4.97123376e-02 -1.79889172e-01
  -2.87979450e-02 -2.17694640e-01  1.26860449e-02 -4.58061546e-02
  -3.80524509e-02  1.96305543e-01  5.68598099e-02 -4.30886865e-01
   3.73676680e-02  1.21201947e-02 -3.59113999e-02  2.76559871e-02
  -4.25142534e-02 -2.52428409e-02 -1.24578830e-02 -2.80524790e-03
   4.88707200e-02 -2.61424743e-02 -2.70486902e-02  3.58738117e-02
   2.05941483e-01  5.13362102e-02  6.50119111e-02 -3.12778085e-01
  -3.38035822e-02 -2.98707467e-03 -1.93276238e-02 -1.12307733e-02
   3.25753866e-03 -5.81339374e-03  3.27009186e-02 -1.24379583e-01
   8.33977461e-02  1.22800358e-01 -3.90212238e-02 -8.18125159e-02
   2.73524188e-02  7.20429868e-02 -1.31026193e-01 -7.76270032e-02
  -6.03295639e-02  4.58147824e-02 -4.12876606e-01 -1.22591279e-01
  -4.56178546e-01 -2.12496564e-01  9.74476412e-02  2.20422447e-02
  -4.66658026e-02  5.42608509e-03  5.36767952e-02 -6.20093644e-02
  -3.85774933e-02  1.71239108e-01 -3.39242890e-02  8.76232609e-03
  -5.25352806e-02  1.91013329e-02  1.21499464e-01 -9.76990983e-02
   3.91108692e-02 -5.77172004e-02 -9.45226029e-02  1.53964311e-01
  -1.50471181e-01 -1.74937472e-02 -4.03763819e-03  5.76044880e-02
   1.74403057e-01 -1.48530146e-02  2.91732047e-02  4.49517220e-02
   2.88054887e-02 -3.92580390e-01  1.18102849e-01  4.88433056e-02
   1.38784014e-02 -3.76682699e-01 -5.25354855e-02 -4.65475619e-02
   4.69729826e-02 -2.85299778e-01 -5.60931340e-02 -2.31352612e-01]
 [ 4.12289836e-02  1.35194054e-02  1.60618708e-01  2.26294226e-03
  -2.07377225e-01 -7.80518353e-02  2.53488682e-03  4.92928028e-02
  -1.20305665e-01 -2.95057707e-02  1.11292060e-02 -5.45233116e-02
  -1.02893315e-01 -1.57546047e-02 -3.52068953e-02  4.97849882e-02
  -2.51733754e-02  1.54478820e-02  2.24919133e-02 -1.81754436e-02
  -2.94242445e-02 -4.33069542e-02  3.09248511e-02  3.11455540e-02
  -3.58454213e-02  2.11140607e-02 -1.22952119e-01 -9.14328322e-02
  -5.06024109e-03 -3.98947597e-02  6.32737130e-02  4.96173091e-02
   9.09306854e-03 -1.38823837e-01  2.27290280e-02  3.36922891e-02
   9.20979772e-03 -2.18572214e-01  1.64194316e-01 -3.94792389e-03
   1.09105352e-02  8.69617984e-02 -3.16175409e-02  2.33635884e-02
  -8.63057598e-02 -9.50322673e-03  3.69791426e-02 -3.95674864e-03
  -3.86834964e-02  5.23111112e-02  1.14185028e-01 -1.03444137e-01
  -4.63185608e-02 -1.38699031e-02  1.62853617e-02 -9.85490382e-02
   3.07454616e-02  2.50268970e-02 -7.77900666e-02  2.67372895e-02
  -2.54139751e-02 -6.00002743e-02  2.23702826e-02  2.27020029e-02
  -1.87309325e-01  3.17335203e-02  1.53708905e-02 -7.12554902e-02
   5.75385503e-02  3.01967300e-02 -5.44525571e-02 -3.39922644e-02
   4.02696505e-02 -4.34811786e-02 -2.10260451e-02 -7.71273002e-02
   1.19113021e-01 -3.72343995e-02 -6.09554872e-02 -2.88511544e-01
   3.06445099e-02 -3.08493406e-01  1.64692849e-02  1.05999820e-01
  -4.27275747e-02 -4.14776467e-02  4.48823301e-03 -1.51333153e-01
  -2.14157760e-01  9.57823768e-02  6.57724291e-02 -9.53619182e-02
   6.92251623e-02 -8.40388611e-02 -4.00879420e-02  3.07031767e-03
  -1.84386764e-02 -1.03354611e-01  1.10508204e-02  1.13134086e-01
  -7.49839144e-03 -4.59348820e-02  2.40031369e-02 -5.17738797e-02
   1.78635083e-02 -1.91190466e-01 -2.13756621e-01  9.93999839e-02
   2.61506084e-02 -1.07112020e-01 -1.60493240e-01 -6.23639189e-02
   4.36373428e-02 -7.42012169e-03  7.51096904e-02 -2.67434027e-02
  -8.46167654e-02 -1.05411641e-01 -2.16709808e-01  2.74433531e-02
   2.02448405e-02 -4.73848134e-02 -7.91315734e-02  2.16471008e-03
   3.12909335e-02 -6.78851530e-02 -1.55687975e-02  1.88724473e-01]
 [-3.83604988e-02 -3.21987681e-02  9.14539993e-02  3.56222987e-02
   4.12353911e-02 -7.59656541e-03 -2.98527982e-02  4.44446392e-02
  -3.45165133e-02 -1.27918245e-02 -3.79845649e-02  2.56883912e-03
   1.40683115e-01 -3.90381254e-02 -8.25795382e-02  2.02174652e-02
   3.96500118e-02 -1.21524073e-02 -2.34852768e-02 -4.52628061e-02
  -2.93775927e-02  1.12835774e-02  9.89317894e-03  2.80401995e-03
  -1.54263116e-02 -7.38814706e-03  8.08964577e-03  5.87337948e-02
  -5.80149703e-02 -9.64890514e-03 -2.29686666e-02  6.01540394e-02
  -5.23986928e-02 -5.59798628e-02  1.94261260e-02  4.85610105e-02
   1.39126154e-02 -1.54715076e-01 -1.94474250e-01  1.97866373e-03
   1.50731886e-02 -1.02288485e-01 -1.07082434e-03 -1.69301629e-01
  -2.56156772e-01  3.21149416e-02 -2.06336174e-02  5.75088635e-02
   2.11170446e-02 -2.86746144e-01 -6.74681142e-02  2.62279753e-02
   6.41673431e-03  3.23489010e-02  4.33485135e-02  3.48917432e-02
   3.14171016e-02 -4.68342751e-02  2.58168746e-02  3.04557439e-02
  -5.15666194e-02  7.80095346e-04 -8.39972794e-02 -1.99509203e-03
   3.57458405e-02  7.65312929e-03  2.95205005e-02  1.52106658e-02
  -8.57252851e-02 -4.15681005e-02 -5.58758117e-02  1.86476279e-02
   3.60967941e-04  3.07791866e-04 -8.82672369e-02  1.11311436e-01
  -4.11853008e-03 -2.59371586e-02 -4.85012643e-02 -4.29450581e-03
   4.68396917e-02 -1.48729980e-01 -1.68155491e-01  3.80323343e-02
   1.93534121e-02 -4.08097766e-02  5.53497188e-02  3.66675332e-02
   1.36159450e-01 -2.21467055e-02 -9.39638019e-02 -3.81331295e-02
  -1.45567432e-01 -9.93040800e-02 -6.24893494e-02 -6.89822286e-02
  -2.11504586e-02  1.08661704e-01 -6.61575720e-02 -3.66924107e-02
  -3.90059724e-02 -1.86113603e-02 -1.56940997e-01  4.09868695e-02
   2.91132648e-02 -2.88663171e-02  1.37434038e-03  1.13869615e-01
  -1.11294910e-02  1.70609821e-02 -8.11444595e-02 -5.10511212e-02
   5.52252084e-02  3.20871104e-03 -6.45461902e-02 -2.82369796e-02
   1.03436420e-02  1.83731988e-01  1.66178197e-02 -7.01406598e-02
  -6.36484846e-02  4.18988317e-02 -4.83358167e-02 -1.21648228e-02
   4.45514098e-02  3.02818082e-02  2.76240241e-02  1.01009429e-01]
 [ 2.85559017e-02  4.87108678e-02 -1.67536770e-03  5.23464940e-03
   9.50110853e-02  5.93041535e-03  4.71284706e-03  1.49661454e-03
   1.02979042e-01 -3.90270874e-02  4.09967266e-02 -5.94792627e-02
   1.59192726e-01 -3.86636704e-04 -1.67974040e-01 -4.23182361e-02
  -2.17560660e-02 -5.24864234e-02  1.77731905e-02  9.39325616e-03
  -3.90976638e-01 -1.00594066e-01  3.37456428e-02 -3.21915001e-02
  -4.62053791e-02 -1.26652166e-01 -2.27154344e-01 -1.51157796e-01
  -4.94065369e-03 -1.71348304e-01  8.52305666e-02  6.72823042e-02
   4.95283538e-03  4.99526784e-02  3.74828093e-02 -1.31958527e-02
  -1.53359184e-02 -1.35837510e-01 -1.42137781e-01 -1.74598396e-03
   8.74954369e-03 -7.36757517e-02  4.11500484e-02  4.44639325e-02
  -2.46060252e-01 -1.69205263e-01 -1.28388163e-02 -6.16251677e-03
  -1.86087582e-02 -2.72118419e-01 -2.90537566e-01 -9.30455141e-03
   4.06338274e-02 -1.13203116e-01 -4.73939069e-02  7.55245835e-02
  -5.65848798e-02 -5.30037992e-02  2.01855805e-02  3.66269909e-02
   5.03836535e-02  2.03686077e-02  5.05405590e-02  5.53471074e-02
  -1.43822543e-02  3.83376554e-02 -4.36060578e-02  9.99081805e-02
  -4.65642251e-02 -8.37638345e-06  6.19967766e-02  2.46956516e-02
  -5.66424727e-02 -3.18421535e-02  1.69325359e-02 -1.22597724e-01
  -1.69214427e-01 -7.06327260e-02 -5.33193350e-02 -1.29857987e-01
  -5.83120361e-02 -7.43863508e-02 -1.41796088e-02 -3.82595062e-02
   6.06853189e-03  1.28473910e-02 -2.58059986e-02 -3.50585207e-02
   2.09543377e-01  9.57276486e-03 -6.23778462e-01 -2.50698607e-02
  -7.20990226e-02 -1.44818109e-02 -5.35377786e-02 -2.37263031e-02
  -2.43614949e-02 -1.44372165e-01  1.46686016e-02  1.55148789e-01
   3.29450332e-02  4.58646566e-02 -4.78682481e-02  4.24944721e-02
  -4.69012931e-02  6.09123111e-02  9.76532102e-02 -2.20284872e-02
  -1.63327441e-01 -1.92325696e-01 -1.12982146e-01  5.35858795e-02
   8.72989595e-02 -4.82114330e-02 -5.18076159e-02 -3.53298150e-02
   4.11305912e-02  9.02867317e-02 -7.12565556e-02  1.72723574e-03
   4.69562374e-02  7.66654834e-02 -2.27838885e-02 -6.05212189e-02
  -2.57621240e-02 -7.42588714e-02 -3.66487913e-02  1.88563779e-01]
 [-1.01704635e-02  4.12871391e-02 -2.00016089e-04 -2.11327951e-02
   6.72926903e-02  3.70663032e-02  1.63734369e-02 -2.32525473e-03
   5.20380102e-02 -1.18849259e-02 -9.19833407e-02  4.57933359e-03
  -1.66494921e-02 -2.15534028e-02  2.33917143e-02 -2.97044571e-02
  -2.92770453e-02 -1.67829264e-02 -1.02501353e-02 -3.82270962e-02
  -2.04234589e-02 -2.08794147e-01 -5.71882986e-02 -1.80204306e-02
   3.06453761e-02 -9.66425613e-02  5.29273488e-02 -5.72882742e-02
  -3.01057231e-02  5.71687184e-02  3.05658597e-02 -4.34479937e-02
  -8.22425820e-04 -1.94050521e-01 -2.40994934e-02 -4.51714732e-02
  -4.80693802e-02 -1.27478853e-01  4.44274582e-02 -5.48141971e-02
   1.91177681e-01  2.45367572e-01  1.34864291e-02 -8.38542432e-02
  -2.10429981e-01  1.00071475e-01 -4.37375084e-02 -1.38566345e-02
  -1.07432408e-02 -1.03395032e-02 -1.68014038e-02  2.13842746e-02
   4.73556891e-02  1.92876622e-01 -7.17531219e-02 -5.51709682e-02
   4.77229059e-03 -5.28359190e-02 -5.83042614e-02  3.45333852e-02
   6.15091715e-03 -6.16020486e-02  1.89523287e-02  5.12309372e-02
   4.08637896e-02  3.05602867e-02 -5.35293669e-02  1.43670440e-01
   8.48764703e-02 -1.61322001e-02  1.36327818e-01 -2.83744298e-02
   1.82946160e-01  2.89226491e-02 -1.06420025e-01  1.37855038e-01
  -5.86132370e-02  1.05455533e-01  1.68329123e-02 -1.57127947e-01
  -6.55081347e-02 -7.60609703e-03  5.29728085e-02  2.14286655e-01
  -5.25024757e-02  2.77463291e-02 -1.23485200e-01  4.87840101e-02
  -1.75937161e-01  3.32531631e-02  2.56998627e-03  3.54948305e-02
   6.90285861e-03 -9.00746807e-02  4.02233712e-02 -1.27671957e-01
  -5.80108501e-02  7.49573437e-03  6.72292151e-03  4.19675671e-02
  -5.68256229e-02 -3.84535789e-02  1.48011506e-01 -2.22620577e-01
   2.59199422e-02 -1.28180981e-01  1.41696170e-01 -1.89090185e-02
   3.90367173e-02  6.85300387e-04 -6.73615634e-02 -4.65122722e-02
   2.74336785e-01  4.32284325e-02 -7.52304867e-02 -5.40695364e-05
   4.88899201e-02  4.71408069e-02 -2.28058383e-01 -5.30366153e-02
   1.16392262e-02  1.35949001e-01  3.07919905e-02 -5.38695455e-02
  -2.78828229e-05 -5.00857607e-02  1.03768818e-02  1.30241632e-01]
 [ 4.26537506e-02 -1.17071876e-02 -8.38044137e-02  4.31536930e-03
  -1.15803815e-01 -7.06697302e-03 -6.71601621e-03  5.05362786e-02
  -7.59928226e-02 -6.65502250e-03 -9.45624933e-02  5.94149390e-03
   1.08132353e-02 -5.39371185e-02 -1.45321175e-01  2.37184931e-02
   4.65745432e-03 -7.51241902e-03 -1.92202814e-02  1.68533698e-02
  -7.55006224e-02  1.02747962e-01  1.62498583e-03  3.73680405e-02
  -4.73320074e-02 -8.76506865e-02  4.70559373e-02  1.53673977e-01
  -4.90762293e-02 -3.69212590e-02  1.75322786e-01  5.46258986e-02
  -5.53197674e-02 -2.35568769e-02  2.84547359e-02 -2.73011494e-02
  -5.93817281e-03  1.31596684e-01 -1.21398143e-01 -4.69646268e-02
  -6.41088560e-02 -2.98630565e-01 -1.29276337e-02  6.91918954e-02
   1.28001079e-01 -3.40243690e-02 -4.58210800e-03  3.96343041e-03
  -5.52852936e-02  7.44444644e-03  1.24272354e-01  4.51480821e-02
  -8.52100998e-02 -1.00185961e-01 -2.21489426e-02 -9.54058394e-03
  -6.42813444e-02 -2.33349912e-02  2.63894955e-03 -1.52210733e-02
  -6.02555424e-02  7.90702086e-03 -6.99999481e-02  3.69711518e-02
  -3.77463400e-02 -1.64427534e-02  2.37418208e-02  1.28395539e-02
   6.41020248e-03 -7.37144649e-02 -2.87810829e-03  5.11012338e-02
   9.22693610e-02 -2.80093420e-02  3.06296628e-02 -1.34326980e-01
  -1.44960592e-02  1.50050865e-02  4.77147624e-02  3.01364940e-02
   4.18295823e-02  5.66390604e-02 -9.99267027e-02  3.61028835e-02
   1.00781955e-02 -3.01653817e-02 -1.04428984e-01 -7.23908693e-02
   1.48967775e-02 -1.58619077e-03  1.80052906e-01 -9.06644985e-02
  -1.78271845e-01 -8.83934796e-02 -6.11354783e-02 -7.22506121e-02
  -3.53869833e-02 -6.56572208e-02 -5.32135665e-02  5.16768917e-02
  -3.70846689e-02  3.51983346e-02 -1.10851027e-01 -5.09926565e-02
   2.47950479e-02  8.79392922e-02 -8.49860758e-02  2.99166925e-02
  -4.44282778e-02  5.51124942e-03  1.37986960e-02 -8.08823854e-02
  -2.05386076e-02 -1.67410951e-02 -8.43192488e-02 -5.22780120e-02
  -6.45819306e-02  1.04410574e-01 -9.08053294e-02  3.47665325e-02
   1.09050661e-01 -1.16899647e-02 -5.20700291e-02  1.86619107e-02
   2.98947450e-02 -4.34843525e-02 -6.18118607e-02 -3.77708860e-02]
 [-2.23227441e-02  6.57473803e-02 -1.24836177e-01 -1.86173003e-02
  -7.15278089e-02 -5.07877544e-02 -2.23441534e-02  2.10930430e-03
   1.28789008e-01 -2.38394029e-02  2.08943896e-03  3.52657028e-02
  -9.87144560e-02  8.50926060e-03 -1.19903788e-03 -6.49041077e-03
   4.01771851e-02 -4.12110537e-02  3.98026444e-02  7.56044015e-02
  -3.40235680e-02 -1.27999976e-01 -2.57093292e-02 -4.90995422e-02
  -7.70837218e-02 -3.85657586e-02 -2.55771458e-01  2.17627630e-01
  -1.52202062e-02 -7.25289211e-02  1.31491065e-01  1.77249163e-01
   5.08021601e-02 -1.17844112e-01  5.17996401e-02 -1.45470407e-02
   3.06264516e-02 -2.12270886e-01  2.03235611e-01  3.56933214e-02
   2.35140577e-01 -1.90132290e-01  4.71044108e-02  3.28714773e-02
   5.12137115e-02 -1.66963488e-01  1.71548855e-02  4.30291891e-02
   3.73294055e-02  1.84827730e-01  4.97292578e-02 -1.89787731e-01
   6.43227249e-03 -8.01458657e-02 -5.85834011e-02 -1.87294558e-03
  -1.52805797e-03  5.49009368e-02 -2.74521727e-02 -3.41059566e-02
   4.47607189e-02 -1.25329420e-02  4.22046855e-02 -4.22756150e-02
  -2.19502911e-01 -3.67862321e-02  7.99793098e-03 -2.73607492e-01
  -2.38400958e-02  1.17126312e-02  8.79875049e-02 -4.96150292e-02
   6.46977574e-02 -3.04401703e-02 -5.68680093e-02 -3.61956090e-01
   1.50496632e-01 -8.65145493e-03 -2.37127841e-02 -8.67680460e-03
   4.40501049e-02  1.84482127e-01 -2.24420358e-03 -1.50579676e-01
  -1.60555337e-02 -3.90684232e-02 -3.46762627e-01 -1.88510790e-01
  -4.60632145e-01 -4.36109118e-02  1.83765024e-01  5.95605373e-03
   5.29267564e-02  5.02129123e-02  8.95894840e-02 -5.95313981e-02
   3.04451659e-02  1.24471992e-01  1.63775962e-03 -1.27124965e-01
  -7.05574173e-03 -7.34897004e-03 -8.44710246e-02 -2.13750795e-01
  -2.76403110e-02 -9.43491329e-03 -5.62116392e-02  7.42982253e-02
  -2.38590017e-01 -1.55791193e-01  1.76040884e-02 -3.85874733e-02
   8.71778429e-02  3.74377854e-02  6.07192777e-02 -1.78684145e-02
   2.52776630e-02 -4.53556031e-01 -4.16193306e-02 -6.25385623e-03
   5.24048209e-02 -2.88863808e-01  2.66032051e-02  9.75180510e-03
   3.15046124e-02 -2.11671799e-01  5.87738976e-02  2.04477436e-03]
 [-2.66277753e-02 -7.06254691e-02  3.84862348e-02  3.43972296e-02
  -1.98159963e-01 -2.27055810e-02  6.43632724e-04 -3.07795238e-02
  -3.00669987e-02 -5.42527400e-02 -4.87076119e-02  3.17781977e-02
   8.63338448e-03  3.88991795e-02 -1.32646888e-01 -1.76214002e-04
   3.74290086e-02 -1.07041886e-02  4.52036597e-02 -8.16629380e-02
  -5.16917966e-02 -1.14485182e-01  6.24122061e-02  3.98064852e-02
  -2.37699761e-03 -9.79470462e-02 -1.23360835e-01  1.11128442e-01
   1.42504927e-02 -1.79963991e-01  1.68770850e-02  1.29017904e-01
  -4.30386923e-02 -1.03974938e-01 -2.80071236e-02 -6.64819553e-02
   4.84227687e-02  6.19579665e-03 -2.04210766e-02 -1.20116668e-02
  -1.07242409e-02  1.89785868e-01 -2.68889628e-02  3.56112309e-02
  -4.76274863e-02 -2.35992540e-02  2.16677953e-02  5.55241480e-02
  -1.02266379e-01  8.94129053e-02  7.21518099e-02 -2.58633010e-02
  -6.74896762e-02 -1.23467773e-01 -1.99232064e-02 -7.12596700e-02
  -4.62615713e-02 -7.08091408e-02 -6.40549436e-02 -4.43035103e-02
   3.98944281e-02 -3.43356282e-02 -8.90691020e-03  4.70519066e-02
  -1.30819902e-01 -1.85130350e-02 -2.95119137e-02 -1.83626320e-02
  -6.89706281e-02 -4.73891310e-02  1.77324358e-02 -2.29682331e-03
  -9.54851359e-02 -7.50358775e-03  3.05871703e-02 -8.74825791e-02
  -2.20313128e-02  8.57373606e-03 -4.15515155e-03 -1.75230041e-01
  -1.12507911e-02 -1.49255589e-01 -3.34535912e-03  1.58925176e-01
   8.64114240e-03  4.35236143e-03 -7.95877948e-02 -1.61331952e-01
  -4.69130240e-02  9.15475190e-02  8.38231016e-03  2.71364804e-02
  -2.55821105e-02  3.35169286e-02  1.16577204e-02 -4.42035012e-02
  -9.57839657e-03 -7.63417259e-02 -1.10134743e-02  8.27934965e-02
  -5.26075922e-02  6.65723439e-03  1.68053418e-01  1.25226043e-02
  -4.95812334e-02 -1.64726600e-01 -1.03212804e-01  1.03087395e-01
   1.70355245e-01 -3.55041511e-02 -1.27167895e-01 -3.18608321e-02
   9.56137925e-02 -5.22003323e-02  2.61898339e-03 -4.03224491e-02
  -3.85824926e-02 -2.00663701e-01 -3.37030962e-02 -5.06234914e-02
  -8.14995095e-02 -1.34250615e-03 -3.44940498e-02 -1.60020925e-02
  -2.00999789e-02 -6.20262660e-02  3.55314165e-02  9.39852837e-03]
 [-4.34171706e-02 -5.89132160e-02  6.83799479e-03 -1.76868550e-02
  -3.72651219e-02 -7.29285404e-02 -2.89069265e-02 -3.79264504e-02
  -5.36953509e-02 -4.58199307e-02 -6.77955076e-02 -6.48999810e-02
   5.72542921e-02 -8.97930004e-03 -3.26695181e-02  2.01059803e-02
  -1.85638350e-02  1.89950410e-02  1.45857269e-03 -7.25728869e-02
  -6.75102621e-02 -7.63929822e-03 -7.05146492e-02  4.96984646e-02
   2.88165244e-03 -2.53103152e-02 -1.19271636e-01 -6.19857945e-02
  -3.80175598e-02  4.32714894e-02  1.68998279e-02  3.28498110e-02
   2.10203752e-02  4.14318405e-02 -4.02989350e-02 -5.36689535e-02
  -5.67940138e-02 -4.95667942e-02 -1.40347093e-01  4.84285802e-02
   3.35121974e-02  2.15682164e-02  4.26088506e-03 -6.59461617e-02
  -2.60288358e-01 -2.74362275e-03 -1.21677620e-02  2.43869657e-03
   2.39112731e-02 -1.84345543e-01 -5.53908646e-02  1.83704808e-01
  -1.04760127e-02 -9.06946510e-02 -1.07222944e-02  3.34264264e-02
   2.36693136e-02 -2.60496121e-02  1.45711284e-02  3.59724239e-02
   6.70755561e-03 -6.84851259e-02 -2.09860094e-02 -7.83633068e-03
   4.09630388e-02 -1.50253167e-02 -6.23254776e-02  6.56377748e-02
  -4.14820202e-02  1.12112081e-02 -6.15410954e-02 -2.86761522e-02
  -7.95877306e-04 -3.09100578e-04 -1.50031433e-01  4.83696312e-02
   5.94205000e-02  4.05784883e-02  2.92977039e-02  3.45390029e-02
  -2.03848779e-02 -8.54742229e-02 -2.90127490e-02  7.40548372e-02
  -7.10967928e-02  4.13559899e-02  3.42254490e-02 -2.92930733e-02
   1.43947408e-01  1.49152234e-01 -1.31717697e-02 -1.34433851e-01
   5.74604496e-02 -1.24473043e-01 -8.28710198e-02 -7.31109381e-02
  -3.92233729e-02 -7.41595253e-02 -4.96449061e-02  2.49665277e-03
  -4.02121805e-02  3.03433323e-03 -1.27348706e-01  3.70995849e-02
  -2.47852504e-02  7.07488880e-02  1.11183055e-01 -1.57368779e-02
   1.35884993e-02 -2.06863079e-02 -1.32308856e-01  2.72807479e-02
  -5.38787022e-02 -1.06732287e-02 -6.71871752e-02 -3.81238647e-02
  -5.53552695e-02  1.83135524e-01 -1.01128677e-02 -4.82089520e-02
  -5.71487546e-02  2.45527904e-02 -3.86222340e-02 -7.38916695e-02
   5.50607666e-02  8.63527730e-02  3.23884450e-02  1.14567217e-03]
 [ 5.82269393e-02 -4.20815125e-02 -1.12789944e-01  1.38421748e-02
   6.21905886e-02 -1.19341314e-02 -6.47008941e-02  1.66850574e-02
   1.35668961e-03 -2.29887106e-02 -9.21134725e-02 -5.27515374e-02
   1.57514229e-01 -2.76900213e-02  6.14364110e-02 -6.10455638e-03
  -5.83023801e-02  2.61430778e-02 -2.45613493e-02 -2.66366787e-02
  -2.09536627e-01 -1.49583921e-01 -5.49932644e-02  2.48046294e-02
  -6.65238574e-02  5.29740602e-02 -1.14825517e-01  4.32858095e-02
   4.85514179e-02 -1.30808532e-01  2.65904695e-01 -4.70332131e-02
  -3.29014249e-02  1.24831442e-02 -6.52035400e-02  2.17213165e-02
  -9.00402293e-03 -8.41117129e-02 -1.99676957e-02 -3.21542993e-02
   8.03784281e-02  6.83076121e-03 -5.38314879e-02 -8.68551433e-02
  -1.24427445e-01 -2.76472140e-02 -4.31895517e-02 -3.11425440e-02
   2.89280619e-03 -3.42468359e-02 -1.70304582e-01  5.45346141e-02
   4.86768819e-02 -5.62698990e-02  2.65650880e-02 -8.46137106e-03
   2.36149803e-02  4.46856134e-02 -2.25520749e-02  1.98390726e-02
   1.89811252e-02  6.33817306e-03 -5.92614114e-02  3.35087851e-02
  -7.70006608e-03 -1.70257445e-02 -4.88560498e-02  3.53236459e-02
   3.76187190e-02 -5.52548915e-02  1.57677248e-01  3.56223062e-02
   6.34208918e-02 -2.58612782e-02 -1.23326667e-01 -1.56305239e-01
  -7.01326653e-02 -1.73475161e-01  9.63905640e-03  6.32639974e-03
   5.04901297e-02 -4.34996076e-02 -6.15058839e-02 -6.91264048e-02
   4.15320657e-02 -2.12010257e-02  5.85358739e-02  8.50118399e-02
   2.71246791e-01 -6.73480555e-02 -4.36150938e-01 -5.36238924e-02
  -1.55171696e-02 -9.44888890e-02  4.10828590e-02 -6.41976967e-02
  -2.99259368e-02 -1.01497389e-01 -6.42516911e-02  1.47349760e-01
  -5.82861481e-03 -1.57534722e-02 -7.50957951e-02  3.36489204e-04
  -1.79737099e-02  2.50554481e-03 -1.04343323e-02 -1.02626607e-01
  -4.97930162e-02  2.03138012e-02 -1.58992499e-01  4.60465550e-02
  -4.55476567e-02 -5.52282622e-03 -8.49561840e-02 -6.16386011e-02
   5.74174942e-03  5.89571856e-02  3.72145995e-02  4.25466523e-02
  -3.72090191e-02  5.86409420e-02 -5.85223250e-02  1.02376323e-02
  -2.33363193e-02 -4.09493856e-02  7.15114456e-03  2.59514540e-01]
 [ 7.77422870e-03  4.69885170e-02  5.98313399e-02 -5.17506152e-02
   8.22853297e-02  3.59256199e-04 -4.65065576e-02 -2.59374939e-02
  -7.57674500e-02  2.07118317e-02  9.89619121e-02  3.35631743e-02
  -2.11407617e-02  5.31030120e-03 -3.29241646e-03 -4.18027192e-02
  -6.19348064e-02  4.86939698e-02 -5.99793531e-02 -3.51134762e-02
   3.80945690e-02 -1.57456264e-01 -6.48812503e-02 -5.14080152e-02
   1.43047404e-02 -7.24023208e-03  2.99521144e-02 -8.95108283e-02
  -3.16595212e-02  1.53738588e-01  1.43155441e-01 -1.03376999e-01
  -3.94227952e-02 -1.61795631e-01  3.99223119e-02  2.42236983e-02
   2.38275584e-02 -2.85179675e-01  1.72983706e-01  4.79363985e-02
  -9.66580585e-02  2.21961573e-01 -6.03098236e-02 -1.04441233e-01
  -1.89402580e-01 -1.18812323e-02 -1.15313316e-02  5.23805507e-02
  -3.45779695e-02 -9.83255357e-02  1.09897189e-01 -1.16355017e-01
  -3.63725089e-02  1.59029692e-01 -3.83854657e-02 -9.89923030e-02
  -8.91219266e-03 -5.11733145e-02  2.83543654e-02 -8.15715455e-03
  -5.97681254e-02  3.16773616e-02  2.70963237e-02 -3.19373943e-02
  -4.73228432e-02  2.33173976e-03 -6.43748045e-02  1.38188034e-01
   5.62655926e-02  2.72394978e-02  2.08736351e-03 -4.46863286e-02
   6.62829950e-02  2.46046297e-02  1.23640649e-01 -1.14898942e-01
   6.56704009e-02  9.38661695e-02  2.33577956e-02 -2.19967663e-01
  -4.08670083e-02 -2.25851700e-01  3.97047587e-02  6.67618960e-02
  -3.14549394e-02 -2.43880656e-02 -8.83931220e-02 -2.35623151e-01
  -4.23951782e-02  2.63930690e-02  6.03751242e-02 -6.57365397e-02
  -4.21657227e-02 -4.79042828e-02  4.14202083e-03 -2.66637653e-02
  -4.49121855e-02 -7.12158531e-03 -2.38073170e-02  1.01378724e-01
  -4.00994569e-02 -1.01374490e-02  2.33803809e-01 -2.76784122e-01
  -2.72699632e-02 -1.19929105e-01  2.13381667e-02 -7.86240846e-02
   1.75580699e-02 -2.62612581e-01 -8.50187317e-02  2.73905545e-02
   4.30912003e-02  3.30055505e-02 -1.27000362e-02 -6.12394605e-03
  -8.12493861e-02  6.66905195e-02 -1.84994102e-01 -2.88543347e-02
  -4.24837414e-03  9.49752778e-02  2.27196347e-02  4.59295325e-02
  -4.82672863e-02  1.44399062e-01 -2.08961237e-02 -2.84566060e-02]
 [ 3.77278887e-02  4.22763750e-02 -8.98641720e-02 -1.32580930e-02
  -9.62072164e-02  1.76613890e-02 -4.55348901e-02 -6.22362494e-02
   5.29269129e-02 -6.47217259e-02 -9.02611166e-02 -4.24986333e-02
  -9.95189697e-02  3.22777294e-02 -7.98159912e-02  3.38375429e-03
  -1.38489502e-02 -4.18088920e-02 -4.84276377e-02  1.81273539e-02
  -5.50492816e-02 -7.48258159e-02 -4.82489802e-02 -1.47048002e-02
   6.97560050e-03 -8.19847584e-02  1.11078866e-01  2.96330042e-02
  -6.47920668e-02 -2.69487917e-01 -3.88526195e-03 -5.58086745e-02
  -5.79966344e-02 -8.29546526e-02  4.29829909e-03  1.22223068e-02
  -8.50074962e-02  7.22747669e-02  7.36308545e-02 -4.88306917e-02
  -1.05490297e-01 -1.12190709e-01 -2.70308424e-02 -7.19089955e-02
   5.08427173e-02 -2.55679220e-01 -2.05463655e-02 -2.28912812e-02
   3.66727151e-02 -8.28673244e-02  3.30377370e-02 -6.52199537e-02
   1.56135894e-02 -4.26098630e-02 -2.38215923e-02 -6.44806353e-03
   8.90908064e-04  3.10559887e-02 -6.81528673e-02 -7.24007487e-02
  -5.63232936e-02  2.93186605e-02 -6.24413043e-02  4.83967662e-02
   4.55647446e-02 -5.96903935e-02 -4.57235128e-02  4.32643928e-02
   1.77570302e-02 -4.79423627e-03 -7.25397915e-02 -4.38062586e-02
   1.38817042e-01  6.35067075e-02  1.21724689e-02 -1.46695420e-01
  -1.66006740e-02  8.45200494e-02  3.90260969e-03 -2.17755418e-02
   4.39762473e-02  1.24387830e-01 -6.02439903e-02 -4.01828699e-02
  -2.54362095e-02  2.66685802e-02  1.14134043e-01 -1.13442920e-01
  -2.60195807e-02 -2.34113857e-02  3.94024029e-02 -1.07210904e-01
  -1.43054992e-01 -6.79006130e-02 -2.18075905e-02  3.04802880e-02
   2.10932847e-02 -6.76732836e-03  3.26556787e-02 -1.81103852e-02
  -4.14177440e-02  1.45544829e-02 -1.24208495e-01  1.76038928e-02
  -5.59233055e-02  6.54664636e-02  9.63007752e-03  1.20332599e-01
  -8.91846046e-03  4.46912274e-02  1.10203274e-01  6.86325319e-03
   1.92969609e-02  1.49870170e-02  3.60815823e-02  9.71376337e-03
  -7.36739254e-03  2.51240339e-02 -3.75833474e-02 -3.92947160e-02
  -4.99077290e-02  3.81142274e-02  2.91468743e-02  4.00576368e-02
   2.48351451e-02 -1.04997374e-01 -3.70278880e-02 -4.38134968e-02]
 [-5.86246885e-02 -8.07857364e-02 -2.07369536e-01 -1.49743573e-03
   4.96840067e-02 -1.27465278e-02  5.10987788e-02 -4.52856906e-02
   1.20555267e-01  4.16728295e-02  2.11062059e-01  3.37721780e-02
  -1.46627929e-02 -9.53746494e-03  3.52723338e-03  1.96044948e-02
   4.74472865e-02  1.28531258e-03 -3.81832151e-03  1.43033788e-02
  -9.41362754e-02 -2.18307748e-01 -1.54066179e-02 -5.39308004e-02
   2.32316572e-02 -1.67381778e-01 -1.60853177e-01  3.43920410e-01
   3.86901349e-02 -4.87635797e-03 -9.42335278e-02  3.54316235e-01
   2.36956310e-02 -8.89725238e-02  1.38231292e-02 -6.24881051e-02
   2.06851680e-02 -1.01727895e-01 -3.33931185e-02  3.77584249e-02
   1.01375826e-01  2.15221047e-01 -7.11274846e-03  1.69691723e-02
  -2.52288487e-02 -1.46923080e-01 -3.34138274e-02  1.13928011e-02
   4.25362699e-02  2.26225540e-01 -1.19742416e-01 -2.77382582e-01
  -2.56477706e-02  8.75465851e-03  5.32730184e-02 -1.02374382e-01
   3.21464762e-02 -2.97531020e-02 -1.10956663e-02  1.04124472e-03
  -4.06176001e-02  4.91940379e-02  1.55999903e-02 -2.74624657e-02
   1.96162775e-01 -2.58483905e-02 -4.21128310e-02 -3.46542537e-01
  -6.62980750e-02  3.99188930e-03 -4.04611528e-02 -2.67238356e-02
  -6.65127635e-02  4.17225473e-02  1.24603766e-03 -4.01826054e-01
  -7.61582106e-02  1.21023089e-01 -5.65420464e-02  3.41340899e-02
   3.06544043e-02  2.32020259e-01  2.41782069e-01 -1.44250449e-02
   1.38995871e-02 -7.78138172e-03 -2.08469734e-01 -2.07963780e-01
  -1.24398179e-01  1.35176048e-01 -1.00465573e-01  2.30594464e-02
   2.39605494e-02 -3.09854317e-02  3.37236561e-02 -5.22738434e-02
   7.43118022e-03  6.90170750e-02 -6.09460697e-02  1.67336315e-01
  -4.12815064e-02 -2.06598430e-03 -2.26751462e-01  5.03331907e-02
   5.64236753e-02 -9.55603272e-02 -6.05803952e-02  3.47543992e-02
  -9.40168202e-02 -1.69188410e-01  7.23077133e-02 -2.64959484e-02
  -8.82621929e-02  1.95696391e-02  1.50404451e-02 -5.01402617e-02
  -3.35225612e-02 -6.69366121e-02 -1.30203456e-01  1.54723106e-02
   5.15924767e-02  1.89320743e-01 -1.33666378e-02 -5.24251536e-02
   3.95534523e-02  6.30110055e-02 -1.44269848e-02 -1.16454840e-01]
 [-6.97643906e-02 -5.05046993e-02  5.15286848e-02  1.21431686e-02
  -1.95089877e-01 -9.29146260e-02 -4.31131292e-03 -4.17677090e-02
  -7.61147961e-02 -7.18702599e-02 -1.03208974e-01 -3.62764932e-02
  -9.12590176e-02 -6.35027699e-03 -4.35402244e-02  2.35866965e-03
  -2.54624020e-02 -6.80071115e-02 -4.05007116e-02 -7.05605969e-02
   6.07890375e-02 -1.63993865e-01 -4.58320007e-02 -9.94226336e-03
  -9.53417551e-03  1.09489508e-01 -6.01961687e-02 -5.26430942e-02
  -3.42990421e-02 -1.22703016e-01 -4.11482155e-02  2.27491170e-01
   4.86847498e-02  3.02230954e-01  1.10762538e-02 -4.70894538e-02
   3.51157449e-02  1.33982331e-01  2.85299808e-01 -4.41112295e-02
  -2.64536515e-02  6.47544414e-02  4.29300629e-02 -7.96059445e-02
  -1.04214333e-01 -4.39307094e-02  2.91194916e-02 -3.29483077e-02
  -7.23069115e-03  1.07758820e-01  6.27165958e-02 -4.30751443e-02
   3.89459394e-02 -9.03741643e-02 -3.45015675e-02 -2.46597566e-02
   2.66219489e-02 -1.31577505e-02 -6.09104037e-02 -3.72928753e-02
  -5.93637675e-02  1.55694876e-03  3.43518890e-02  4.20385487e-02
   1.79892238e-02  3.33212428e-02 -6.64155604e-03 -1.73456706e-02
  -7.64628081e-03 -1.31129660e-02  6.39854819e-02 -2.92411856e-02
   6.65920004e-02 -5.42127192e-02  3.74416895e-02 -4.97168042e-02
   1.04438722e-01  1.30138531e-01 -4.52461168e-02 -2.58916706e-01
  -7.27459490e-02 -7.29951868e-03  1.87552739e-02  4.35750559e-03
  -7.88656715e-03 -2.20315903e-02  2.28373371e-02  8.11437890e-02
  -3.56066748e-02  6.11828081e-02  6.41453918e-03 -2.49109678e-02
  -9.38343480e-02 -1.93213336e-02 -7.19682276e-02 -6.35886518e-03
  -6.00148179e-02 -1.13438919e-01 -1.44089134e-02  7.06595406e-02
  -2.69820280e-02  5.50641771e-03 -2.08188575e-02 -1.44588158e-01
  -4.74642143e-02 -7.59832263e-02 -8.18864442e-03  6.45589083e-02
   2.18321130e-01  1.12950802e-02  6.98159486e-02 -6.59586266e-02
   1.55159459e-01 -1.43496990e-02 -3.85659486e-02  8.78292043e-03
   2.59427819e-02 -1.42740399e-01 -6.41160309e-02  3.66936214e-02
  -1.04345111e-02  1.15638711e-01  2.27185655e-02 -6.01381548e-02
  -3.90789434e-02 -2.05013510e-02  4.99768369e-03 -1.69648096e-01]
 [ 2.49973573e-02 -8.02060124e-03  7.84190521e-02 -4.77123894e-02
  -9.59815085e-02 -8.15157890e-02  5.92086576e-02  2.74518896e-02
  -3.46837938e-02  3.39804888e-02 -1.99761197e-01  4.32590693e-02
   1.00678071e-01 -1.25003920e-03 -2.59466711e-02  1.77296419e-02
  -5.76787889e-02 -3.94064449e-02 -4.56503332e-02 -6.02671392e-02
  -3.48213054e-02 -3.63645740e-02 -5.14666177e-02 -7.15974048e-02
  -6.00336306e-02 -5.88703789e-02 -6.72478005e-02 -6.14157952e-02
   1.18507454e-02  5.91947809e-02 -1.88163966e-02  4.91165146e-02
   2.95865107e-02 -4.85707596e-02 -6.13464043e-03  3.00023500e-02
  -2.24771220e-02 -6.36293888e-02 -2.17981815e-01  4.94069792e-02
   2.07245518e-02  8.11144058e-03 -5.32975979e-02 -1.20120719e-01
  -3.48979943e-02  2.55862977e-02  5.38860522e-02 -3.50497700e-02
   4.94292006e-02 -9.10712779e-02  3.68753262e-02  1.28089949e-01
  -3.76649648e-02 -3.49924304e-02 -2.54320875e-02 -7.46024549e-02
  -6.17226362e-02  2.43760440e-02 -2.40753386e-02 -3.38256955e-02
   1.23598035e-02  1.66025516e-02 -4.46464196e-02  2.74322946e-02
   4.85667847e-02 -6.14464693e-02  2.04543676e-02  8.81352425e-02
  -7.31073171e-02 -7.79810175e-03  2.90154722e-02 -5.41563816e-02
  -3.36562991e-02  5.02512902e-02 -4.51373542e-03 -1.40188158e-01
   3.35066058e-02 -1.71070527e-02 -6.25207871e-02  5.42206652e-02
   3.74433137e-02 -8.32098573e-02  3.88277438e-03  1.67720824e-01
   4.91352635e-04 -1.43615324e-02  8.55653640e-03  6.53588846e-02
   2.16743082e-01 -2.66567413e-02  1.80583429e-02 -5.26439808e-02
  -5.48384003e-02 -6.56685829e-02 -6.78399801e-02 -9.55357850e-02
   3.92437801e-02 -9.27504078e-02  1.40732210e-02 -1.53942779e-02
  -3.55029735e-03  3.98566611e-02 -4.45855176e-03  6.59749061e-02
  -1.06085502e-01  7.66881630e-02  7.08111748e-02  6.12330623e-02
   7.15087205e-02  6.58528060e-02 -2.46165805e-02 -8.29637274e-02
   2.97065433e-02  3.12305968e-02 -7.22817481e-02 -4.95080976e-03
  -3.87048982e-02  1.35120779e-01 -4.47030412e-03  4.12671641e-02
  -4.53505255e-02 -3.29711102e-02 -9.94534232e-03  3.68635580e-02
   2.72327792e-02  8.59212801e-02 -5.48962355e-02  3.37910913e-02]
 [ 8.19867253e-02 -2.48594470e-02 -7.39345476e-02 -4.34932970e-02
   7.72857890e-02 -5.79142161e-02 -1.80305596e-02  1.15556037e-02
   5.96876591e-02  3.04331891e-02 -1.10796548e-01 -6.47936836e-02
   6.44239932e-02  1.13213910e-02 -1.05694141e-02  4.30197418e-02
  -3.05972956e-02 -1.28088584e-02 -2.48864815e-02 -4.58286740e-02
  -1.96803138e-02 -1.86236009e-01  3.51569466e-02  5.91284782e-03
  -7.36709610e-02  4.61432785e-02 -8.79981443e-02 -2.25888807e-02
  -3.46097420e-03 -9.69461724e-02  2.94366684e-02  2.15650280e-03
  -6.30281046e-02  8.78520533e-02 -3.97039317e-02 -1.59128755e-02
  -7.73946196e-02 -6.31581545e-02 -2.55351551e-02  5.97096561e-03
   4.97286171e-02 -4.76595722e-02  5.07081859e-03  9.30771325e-03
  -1.97005138e-01 -8.83798227e-02 -1.63691659e-02 -4.08982225e-02
   2.69611832e-02 -1.72734819e-02 -1.51119053e-01  5.90586998e-02
  -1.13907475e-02 -1.50182292e-01  7.24731013e-03  6.15514591e-02
  -3.99162341e-03 -9.77113470e-03  5.02579547e-02  4.31565456e-02
  -4.89331484e-02 -2.29016859e-02 -6.73813522e-02  4.14734483e-02
  -7.12809563e-02 -2.36394745e-03 -5.20724282e-02  9.29570105e-03
   1.44746929e-01 -2.46503707e-02  6.08402640e-02 -5.55599704e-02
   2.27690744e-03  2.05040406e-02 -4.11830209e-02 -8.68545547e-02
  -2.93542948e-02 -1.88419700e-01  1.14680417e-02 -6.91360757e-02
  -5.45960851e-02 -9.94036496e-02  1.29867002e-01 -9.68198329e-02
   1.58241689e-02 -4.31156252e-03  1.14642374e-01  1.18923513e-02
   2.71078438e-01 -4.85044792e-02 -4.16364402e-01  5.34037268e-03
  -6.80086687e-02 -4.70369086e-02 -6.35652617e-02 -5.70586249e-02
   8.52219108e-03 -7.53280297e-02 -1.87195949e-02  5.41476011e-02
   8.53915419e-03 -5.59361652e-02  9.96481180e-02 -1.14831580e-02
   4.39003520e-02 -4.56917658e-02  8.21144953e-02 -8.11286867e-02
  -5.12780212e-02 -6.62693083e-02  3.63817625e-02  5.06838784e-02
   3.03613078e-02 -3.62119973e-02 -1.73763465e-02  2.81792264e-02
   4.87450957e-02  1.41013011e-01 -1.00940906e-01 -5.62590249e-02
   8.28355923e-03  7.61307105e-02  3.33142094e-02 -2.17719283e-02
   1.41912745e-02 -4.06380557e-02  4.22654636e-02  1.85850084e-01]
 [-2.47564167e-02 -2.31383927e-02 -2.50478834e-02  1.25606579e-03
   1.46199211e-01 -1.41527811e-02  5.96797094e-04  2.96044676e-03
  -7.82252550e-02 -4.53113765e-02  4.75646071e-02  2.32987385e-02
  -1.58621252e-01 -4.14968655e-02 -5.51322661e-02 -2.61622742e-02
  -2.07721610e-02 -5.24143241e-02  3.62970605e-02  1.93603395e-03
  -1.65114366e-03 -6.18144032e-03  2.61054188e-02 -1.38814365e-02
  -6.57082200e-02 -2.88881082e-02  6.17372058e-02  4.35217470e-02
   4.79167327e-02 -2.53480878e-02  5.73341921e-02 -1.15861772e-02
  -6.02960512e-02  1.79738075e-01 -4.55523431e-02 -7.08972150e-03
  -7.10685505e-03 -2.57845134e-01  4.64418083e-02  1.36016654e-02
   1.66681737e-01  5.93185723e-02 -2.74826796e-03 -6.06843680e-02
  -1.92314029e-01 -2.50761747e-01  2.97773611e-02  6.60921121e-03
  -7.86083564e-02  6.91584423e-02  7.92290643e-02 -7.02855960e-02
   2.65084002e-02 -2.92364918e-02 -2.42615771e-02  1.59077961e-02
  -1.72302071e-02 -3.81050147e-02  2.28383485e-02 -6.83910474e-02
   2.05370523e-02 -3.52355503e-02 -1.01751149e-01 -3.37313265e-02
   3.10939308e-02 -3.81504670e-02  4.45425212e-02 -9.44186375e-02
  -2.23790500e-02 -8.88779461e-02 -7.80812725e-02  5.47053525e-03
  -8.57726336e-02 -5.03991432e-02  4.17909734e-02 -4.03562337e-01
   1.88031554e-01  4.70070280e-02 -2.40082834e-02 -1.35385990e-01
   2.99249720e-02 -3.87383141e-02 -8.84775519e-02 -1.19881794e-01
  -4.53672223e-02  2.65362952e-02 -2.55101800e-01 -2.48151451e-01
  -2.96140499e-02  5.29455505e-02 -2.78837542e-04 -3.23986844e-03
  -2.06866208e-02 -1.07941660e-03 -3.53399292e-02 -6.76188171e-02
  -6.97325319e-02 -1.84125416e-02 -8.45853239e-03  2.12170586e-01
  -1.57031026e-02 -4.69811745e-02 -8.27786550e-02 -1.53858602e-01
  -7.14424178e-02 -6.08767793e-02  1.11719362e-01  3.77663597e-02
   8.79510045e-02  1.01396069e-01 -2.99931198e-01  2.60320213e-02
   6.53328225e-02  5.19047752e-02 -3.73911932e-02  3.37647982e-02
  -7.62020424e-02 -1.53895114e-02  9.20229703e-02  3.60176191e-02
  -6.79724813e-02  1.31810689e-02 -5.89683477e-04 -8.59371424e-02
   9.25749633e-03 -3.00832298e-02 -1.68417320e-02 -7.12684765e-02]
 [-4.27785404e-02  6.79811556e-03  1.41238538e-03 -4.63565588e-02
  -1.42646000e-01  3.21251117e-02 -7.30358213e-02 -1.82089098e-02
  -4.91219163e-02 -6.24097697e-03  6.36701137e-02 -3.57622057e-02
  -1.32033646e-01 -1.51637085e-02  4.29789424e-02  1.97989587e-02
   8.06661043e-03  3.94976884e-02  2.17464603e-02  2.46322416e-02
  -8.51296932e-02 -6.58104718e-02 -4.83553559e-02  4.56377007e-02
  -4.83764289e-03  3.55825759e-04 -4.83222008e-02  1.13416083e-01
  -1.40478637e-03 -1.11809865e-01 -5.36011048e-02  1.88891739e-01
  -3.07134036e-02 -2.38890033e-02 -1.15051458e-03  1.83474123e-02
  -3.38375829e-02  5.23474552e-02 -7.52176642e-02  1.22233564e-02
  -1.10090584e-01  4.67189066e-02 -4.74075787e-03  4.81784083e-02
  -6.25012219e-02 -3.67444903e-02 -1.04174428e-02  7.80966273e-03
  -8.82520974e-02 -2.59468388e-02  2.91528832e-02 -6.36446401e-02
   1.07556386e-02 -2.21709117e-01  3.65596488e-02 -1.68298930e-02
  -7.13247806e-02 -5.04876189e-02 -3.16551663e-02  3.40201594e-02
  -3.90616595e-03 -3.44243087e-02  9.16781649e-02 -8.08544382e-02
  -1.22187790e-02 -2.07530893e-02 -5.52250594e-02  6.35341778e-02
  -1.99525594e-03 -1.86108891e-02  6.14705235e-02  5.04439361e-02
  -1.18949734e-01 -6.98867291e-02  2.26988606e-02 -9.70089659e-02
   1.64528489e-02 -1.56937078e-01  2.38049868e-02 -1.03570512e-02
  -3.14252339e-02  8.53155702e-02 -1.63683534e-01 -6.84174374e-02
  -2.72520185e-02 -5.56487255e-02  1.23529188e-01 -1.84838980e-01
  -5.18149771e-02  6.22788295e-02 -1.34741381e-01 -1.13056734e-01
  -5.46100177e-02 -9.80737656e-02  1.42431809e-02 -4.86641377e-02
  -3.75815704e-02 -4.56661992e-02 -1.75701343e-02 -6.62405044e-02
  -7.03958496e-02  1.59102562e-03 -4.90179658e-02  9.67106968e-02
   4.05411385e-02  2.91002053e-03 -1.30186290e-01 -3.75534743e-02
   4.97032888e-02  1.22002829e-02 -5.38142547e-02  5.47737640e-04
   2.14466192e-02 -2.07233033e-03 -7.55436420e-02  1.73550900e-02
  -8.40229914e-02  9.22874361e-02 -8.33553523e-02 -3.32243443e-02
  -8.66743475e-02  1.71586573e-01 -3.54942083e-02 -1.45789767e-02
  -5.29613234e-02  4.78837192e-02 -4.88837399e-02  8.50958824e-02]
 [-5.14284940e-03  3.64435948e-02 -1.97760552e-01  3.59136350e-02
  -1.71087813e-02 -1.68037470e-02  4.62353006e-02 -2.90548708e-03
   8.57649520e-02  1.94800980e-02 -1.23199588e-02 -2.49772295e-02
   9.18304846e-02 -1.57904085e-02 -7.02045262e-02  4.62866202e-02
  -1.61198154e-02 -1.44059779e-02 -2.20800824e-02  4.27451804e-02
   1.86288953e-01 -2.49620397e-02 -1.71455089e-02  4.34733629e-02
   4.88876831e-04 -1.97432384e-01 -1.30318031e-01  1.40631020e-01
  -2.26026177e-02  2.92058028e-02  6.75510708e-03  3.50699842e-01
  -3.85543294e-02 -1.10897727e-01 -3.88877233e-03  4.11299802e-02
  -3.42791528e-02 -2.29237735e-01 -1.04631148e-01  3.97096090e-02
  -1.80422086e-02  5.45844913e-01  6.20973371e-02 -6.78221807e-02
   3.38697359e-02  5.38409911e-02  2.93244771e-03  4.92394145e-04
   2.12289523e-02  1.89283028e-01 -4.83521745e-02 -2.42708951e-01
  -5.40861860e-03 -4.99547180e-03  5.75643145e-02 -6.41235262e-02
   5.24226613e-02 -1.87260658e-02 -3.98211479e-02 -2.85151042e-02
  -4.70629055e-03 -2.54585966e-03  3.64630483e-02 -5.45576401e-03
   1.60677537e-01 -4.62641753e-02 -3.02100764e-03 -2.88887471e-01
  -3.44399400e-02 -4.45824638e-02 -7.02858642e-02  3.17655206e-02
  -2.24797517e-01  4.54743430e-02 -6.07410632e-02 -6.42171502e-02
  -1.58043206e-02  1.59968138e-01 -3.42391133e-02 -1.12072296e-01
  -3.32827978e-02  7.38008246e-02  2.19441667e-01 -5.89130186e-02
   4.90485504e-02 -3.47307175e-02 -3.21527362e-01 -1.76542580e-01
   3.35664451e-02 -8.42482299e-02 -6.94318861e-02 -2.24169847e-02
  -1.21824436e-01 -5.06622791e-02  5.65186776e-02 -3.14797163e-02
   4.44542840e-02  2.53686994e-01 -4.26880233e-02 -2.38841474e-02
  -6.38343487e-03 -5.02601154e-02 -7.90495947e-02  2.53476143e-01
   3.88000496e-02 -1.34258553e-01 -3.80218215e-02 -8.48447680e-02
   1.67458832e-01 -1.36997163e-01 -1.39997780e-01  1.84731744e-02
  -1.87706053e-01  3.52235362e-02  1.02951951e-01  3.98099944e-02
  -1.16175441e-02  1.30475149e-01 -5.08717559e-02  5.88743947e-02
   3.32371108e-02  3.11874866e-01 -2.80963667e-02  3.95610929e-02
   4.04897183e-02  1.61994010e-01 -3.62338275e-02 -1.85438067e-01]
 [-1.03975482e-01 -2.34522372e-02  7.96332285e-02 -3.67032997e-02
   1.48126647e-01 -4.86876965e-02 -4.46192473e-02 -7.91360345e-03
   1.22579690e-02 -7.55566210e-02 -1.36030316e-01  1.10311795e-03
  -3.53609063e-02 -7.05765411e-02  2.57779285e-02 -1.44898351e-02
   1.59110539e-02 -5.41192368e-02 -5.68961771e-03 -5.93968593e-02
   3.94912884e-02 -3.16919982e-01 -4.63624001e-02  1.14079146e-03
   3.90034281e-02  3.96456197e-02 -7.21318647e-02 -2.90661752e-02
   1.85330082e-02  3.91585678e-02 -7.50431195e-02  4.26580235e-02
   2.14956794e-02  8.02131072e-02 -3.33802728e-03 -5.80457300e-02
   1.76495127e-02 -2.14975402e-01  1.89893097e-01 -9.48312320e-03
  -1.32491618e-01 -6.97743148e-02  3.82782035e-02 -8.91865045e-03
  -1.89412519e-01 -1.01253867e-01  1.94100663e-02 -6.72083274e-02
   4.66591632e-03  1.49463370e-01  6.13562278e-02 -7.38772154e-02
   2.27222708e-03 -1.30983070e-01 -5.27836420e-02 -4.87837158e-02
   4.41742465e-02 -4.27277349e-02 -7.06628710e-02 -8.51792395e-02
   2.51303948e-02 -3.27146496e-04  2.00988371e-02 -6.25912175e-02
  -1.21187426e-01 -6.31106868e-02 -1.62021983e-02 -3.56712602e-02
  -1.07998684e-01  1.62913650e-02 -7.66377375e-02 -8.01548064e-02
   1.35703489e-01 -1.06768112e-03 -2.48536319e-02  1.00026168e-01
   7.09410310e-02  1.47406504e-01  2.37771939e-03 -3.63107361e-02
  -2.46713404e-02 -4.14363593e-02 -8.66931630e-04 -1.27763405e-01
   2.31606197e-02 -5.75895570e-02  7.66262710e-02  7.80726299e-02
  -1.17883578e-01  1.72713846e-02 -3.75262415e-03 -9.74181965e-02
   8.63415152e-02 -8.43572617e-02  4.83430773e-02  2.71558575e-02
   4.17156257e-02 -7.45427087e-02 -2.32774392e-03  1.50223419e-01
  -6.68976735e-03 -5.13824634e-02  5.44764586e-02 -2.16711819e-01
  -4.47045825e-02 -6.27061725e-02 -4.47217822e-02  3.49746272e-02
   4.32413928e-02 -1.64413825e-01  3.69310677e-02 -6.35916963e-02
   1.91826910e-01  4.87890840e-02 -2.34882385e-02  1.75043853e-04
  -5.15045412e-02 -9.18272287e-02  3.67718488e-02  2.43114238e-03
   2.78437044e-02  1.50426015e-01 -3.04019712e-02  2.09991205e-02
   4.24142107e-02  1.31216049e-02 -5.73133752e-02 -5.67541318e-03]
 [-2.30215173e-02 -5.50086237e-02 -1.29914070e-02 -2.90033029e-04
   3.99499647e-02 -2.23684870e-02 -4.92926314e-02 -5.78631088e-03
  -5.99732948e-03  3.57265323e-02 -1.63280383e-01 -5.26098907e-03
   1.11489840e-01  1.50098689e-02  3.97378094e-02  4.30112565e-03
  -4.06783707e-02  3.48286591e-02  1.08074723e-03 -3.64841074e-02
  -6.15327917e-02 -8.76980573e-02 -9.27601606e-02  1.25410473e-02
  -3.58127058e-02  9.54933539e-02  2.00414173e-02 -8.87857005e-02
  -6.60473034e-02  1.49977475e-01  3.77125554e-02  9.78894085e-02
  -5.29405363e-02  6.87927799e-03 -5.51808402e-02 -6.23345412e-02
  -6.03827164e-02  9.06758010e-03 -1.71198413e-01  3.18494961e-02
   5.68302795e-02  2.00577779e-03 -3.02059446e-02 -1.00224219e-01
  -8.27192664e-02  2.07022205e-02 -5.36972433e-02 -5.81885614e-02
   5.23728970e-03 -1.12929873e-01 -6.06274009e-02  7.79255778e-02
  -6.20519295e-02  1.86751038e-01 -8.11209064e-03 -5.77641390e-02
  -6.15186356e-02 -6.27951324e-02 -4.41305898e-02  3.65760201e-03
   2.00794209e-02 -4.37939055e-02  1.44634815e-02 -5.34401275e-02
   5.97570762e-02  5.66965193e-02  3.37271392e-02  1.10808022e-01
   4.82823923e-02  2.07347423e-02  9.18532163e-02 -5.29384501e-02
  -1.82049163e-02 -4.93928567e-02 -1.21848239e-02 -1.25118777e-01
   4.61097583e-02 -7.12800026e-02 -3.53731140e-02 -7.18035474e-02
   3.85455750e-02 -6.55817017e-02 -7.96992034e-02  1.11547612e-01
   4.81325239e-02 -4.19943146e-02  6.39409870e-02  1.71262920e-02
   1.41225606e-01  6.21858202e-02 -7.06690699e-02 -1.58627301e-01
  -8.48480165e-02 -1.29582360e-01  4.55217175e-02 -7.75904208e-02
  -3.88076343e-02 -9.49045119e-04 -5.97527549e-02 -4.95773964e-02
  -5.33889718e-02 -5.39309978e-02  1.74154770e-02  4.99962792e-02
   1.06680915e-02  5.86783402e-02  6.04402162e-02  9.20443758e-02
   7.15208352e-02  1.81286186e-01 -1.03269100e-01 -7.24193603e-02
  -1.03740156e-01 -3.37744206e-02 -1.23356670e-01  2.02228371e-02
   1.32467626e-02  1.91025585e-01 -2.57125050e-02 -2.98037124e-03
  -1.11529760e-01 -1.98309291e-02  4.65181805e-02 -4.61948328e-02
  -6.36638552e-02  2.52210405e-02 -6.14194535e-02  6.90546855e-02]
 [ 8.84147808e-02 -1.02581801e-02 -2.68484503e-02 -6.67831004e-02
  -1.04771093e-01  2.99450532e-02 -1.74034722e-02 -2.57192110e-03
  -2.42665466e-02 -5.47967665e-02 -1.19192556e-01 -4.74833138e-02
   1.16611365e-02 -6.04586527e-02  1.16893187e-01 -1.29289264e-02
  -3.90366316e-02  1.73087902e-02 -4.82662655e-02 -3.59978601e-02
  -5.73992394e-02 -1.39675424e-01  1.14455344e-02  3.10203172e-02
   6.52728602e-03 -2.64228936e-02 -1.65823679e-02 -3.73168476e-03
  -4.47052419e-02 -1.00117669e-01  1.01818539e-01 -5.08068912e-02
   1.97577360e-03 -9.42271724e-02 -3.55086997e-02  3.49159874e-02
  -1.82459934e-03 -2.81132072e-01  3.09835337e-02  4.67213895e-03
   1.75439611e-01 -1.68766662e-01 -6.67740256e-02  9.28748026e-03
  -2.25617498e-01 -5.96457385e-02 -8.99291690e-03  6.11022934e-02
  -2.19047181e-02 -1.35582192e-02 -2.09983602e-01  1.01752125e-01
  -1.34043815e-02 -9.58579630e-02  2.09065042e-02  1.98514983e-02
   4.09174263e-02 -1.41322520e-02 -4.34555449e-02  4.17412445e-02
  -5.19887023e-02  4.44610678e-02 -2.23849509e-02  3.59691121e-02
  -2.13567587e-03 -2.48548333e-02 -5.28856404e-02  1.08725494e-02
   6.90421909e-02  1.39803281e-02  1.85671091e-01 -4.61317860e-02
   1.39968514e-01 -1.84289683e-02 -8.50033388e-03 -2.48989463e-01
   1.43859657e-02  3.57275568e-02 -3.24459970e-02 -4.60183099e-02
   4.50696759e-02  1.35968417e-01 -2.49776632e-01  9.61478427e-02
  -2.51282230e-02 -2.04761811e-02  1.18666030e-01 -4.04669046e-02
   1.43819958e-01 -3.80078256e-02 -3.05386603e-01 -1.32860586e-01
  -3.74209918e-02 -6.91799913e-03 -6.12368947e-03 -1.25892878e-01
   3.14145498e-02 -5.85242249e-02  5.22612557e-02 -6.13088980e-02
   2.02257279e-03 -1.55745745e-02  2.57391892e-02  3.85122299e-02
   2.04977430e-02 -4.87829484e-02  1.71301499e-01  1.08835595e-02
  -3.13455239e-02 -4.21802290e-02  7.94621110e-02 -7.59402872e-04
   1.13733970e-02 -3.00123636e-02 -7.63898268e-02  6.35209400e-03
   8.80484283e-03  1.03391983e-01  3.63813154e-02 -3.21756154e-02
  -9.41234604e-02 -7.41543202e-03  3.14534679e-02 -6.22840784e-02
   2.47867350e-02 -4.43998491e-03 -6.66177124e-02  1.14204898e-01]
 [-3.48009020e-02 -8.50063562e-03  2.34394088e-01  2.92584933e-02
   1.85617715e-01  2.62387041e-02 -5.52600110e-03 -2.73988303e-02
  -1.31517738e-01  4.62396629e-02  4.43575792e-02  1.35707743e-02
   4.35614102e-02  3.67889516e-02  6.62440211e-02 -3.53571475e-02
  -4.67772223e-02  1.95261966e-02  2.10217517e-02 -4.59925570e-02
  -1.12378746e-01  7.89537728e-02 -4.45924960e-02 -6.51566535e-02
   2.29663067e-02 -1.01988815e-01 -1.27181798e-01 -2.33648121e-01
  -4.98031937e-02 -1.21986959e-02  1.01080425e-01  1.27439527e-02
   4.48815934e-02  1.95319548e-01 -6.87660649e-02 -4.38449532e-03
   3.65133286e-02 -2.53484815e-01  6.16629384e-02 -5.29313274e-02
   4.34558615e-02  1.36879295e-01 -1.04144355e-02 -1.34836987e-01
  -1.07101969e-01 -2.53825873e-01 -5.08154258e-02 -5.23970537e-02
  -2.66997144e-02  4.96471711e-02 -1.70617476e-02  7.61108845e-02
  -3.53797153e-02  4.82477173e-02 -2.63556577e-02 -6.22694492e-02
   1.32139614e-02 -1.37455175e-02 -6.30986989e-02 -5.29013537e-02
  -6.41991869e-02 -7.57697911e-04  2.92891786e-02 -4.66830917e-02
   6.01526350e-02 -5.22692362e-03 -5.85851185e-02  8.93664509e-02
  -3.05606853e-02 -1.63449142e-02 -6.12633675e-02 -7.96163157e-02
   1.26366407e-01  2.56351959e-02 -4.61976901e-02 -1.67016219e-02
   1.51667953e-01  3.61331645e-03 -1.78009793e-02 -1.39125101e-02
   3.91501784e-02  2.82542780e-02  3.01207192e-02 -9.99839162e-04
   4.52711387e-03 -6.02502376e-02 -6.92977831e-02 -7.04302313e-03
   1.10194191e-01 -5.89972772e-02  2.68098209e-02 -3.72372456e-02
  -5.20246811e-02 -7.21069276e-02  2.68545728e-02  3.52619328e-02
  -1.68017782e-02 -2.61144042e-01 -4.19491716e-02  5.11390492e-02
  -5.72933117e-03 -1.75069238e-03 -6.21384531e-02  9.79357958e-02
   2.66371369e-02 -6.60397410e-02  6.16812631e-02  3.83675396e-02
   1.06268831e-01 -2.40111679e-01  7.41467178e-02 -2.60991026e-02
   8.82941708e-02  2.38819085e-02 -4.32179943e-02  1.23045500e-02
  -2.13108938e-02  1.62994191e-02  7.70747215e-02 -1.21123819e-02
  -1.30685316e-02 -6.87799300e-04  4.70674150e-02 -5.81162795e-02
  -6.14770986e-02 -1.20147675e-01 -3.82138640e-02 -1.31471708e-01]
 [-3.75475548e-02 -5.44176251e-02  2.09655408e-02  1.00871110e-02
   6.51641982e-04 -5.71007505e-02 -1.59503631e-02  1.92458108e-02
   5.87655716e-02  1.19032143e-02  1.90754123e-02 -3.27466801e-02
  -4.63460200e-02  2.79205516e-02 -5.22872731e-02  2.61674486e-02
  -1.51189957e-02 -5.12807742e-02 -5.27030081e-02 -3.92567851e-02
   1.94197930e-02 -2.01415241e-01  1.96063779e-02 -7.55048096e-02
   2.18842318e-03 -1.79795444e-01  1.08640201e-01 -1.75134055e-02
   4.25874256e-02 -1.94908604e-01  2.38720328e-02  1.18425868e-01
   7.73289939e-03  1.51247263e-01 -8.01110361e-03 -1.67105719e-02
   1.79576464e-02  6.25372399e-03  1.68867156e-01 -7.54890367e-02
  -2.48283278e-02  2.03995500e-02  3.44496146e-02  4.35640775e-02
   5.51977865e-02  5.35725467e-02 -2.32615490e-02  3.43285501e-02
  -1.17982663e-01  1.69658940e-02 -4.57024667e-03 -1.23817340e-01
  -8.77318680e-02 -7.83612505e-02 -2.46037748e-02  3.04692071e-02
  -2.12607160e-02  2.01044083e-02 -3.91958561e-03 -5.78119280e-03
  -4.32075933e-02  1.11053996e-02 -3.94629017e-02 -7.59319365e-02
   1.83403343e-02 -6.79973438e-02 -2.42890697e-02  3.87858301e-02
  -3.36008184e-02 -2.96968017e-02  8.56749043e-02 -5.69928698e-02
  -4.91743647e-02  3.33043635e-02 -1.90720540e-02 -1.29596293e-01
   6.34004921e-02  2.58515179e-02 -5.43348901e-02 -1.36460410e-02
  -6.24684021e-02  4.77872267e-02  2.19973340e-03  4.94668335e-02
  -5.22173233e-02 -9.28982198e-02  8.01205188e-02 -1.75620720e-01
   1.79653794e-01 -6.31731153e-02  1.12003379e-01 -3.69545929e-02
  -1.37698129e-01  6.15645782e-04 -9.20313317e-03 -6.83007110e-03
  -3.24157514e-02 -1.70821045e-02  1.14056664e-02 -2.20873877e-02
   5.38404798e-03  1.15314974e-02 -6.10648319e-02  6.93765283e-02
  -3.70219350e-02 -1.82543360e-02 -4.26389426e-02  1.99739244e-02
   1.14831924e-02  1.45029515e-01  5.77559136e-02 -8.54918063e-02
  -3.17363888e-02 -4.93716747e-02 -2.62718964e-02 -5.26672378e-02
  -5.38939349e-02  7.82533661e-02 -1.38914242e-01 -6.60322011e-02
   6.45777285e-02  7.38037229e-02 -6.33948371e-02 -5.93337752e-02
  -3.34700346e-02  7.81986639e-02  9.66623705e-03  9.79380980e-02]
 [-9.69587713e-02  5.81718655e-03 -1.27149761e-01  7.81791937e-03
  -1.76868320e-01 -4.62059453e-02  5.27050123e-02  3.91227715e-02
   3.37344743e-02  2.31255312e-02 -6.03230409e-02 -3.51907350e-02
   3.39860320e-01  1.00164777e-02  3.17045227e-02 -2.98402202e-03
   6.07765792e-03 -1.96111314e-02 -8.59798715e-02  1.10873595e-01
   2.84659147e-01 -1.35269687e-01 -3.62138376e-02 -5.05158454e-02
  -1.63312871e-02 -3.64725105e-02 -1.84960365e-01 -7.41365850e-02
  -5.16216233e-02 -1.98739678e-01 -9.66912974e-03  4.83873576e-01
  -4.23908606e-02  9.96882543e-02  4.39101644e-02 -6.04339167e-02
   1.12257265e-02 -1.28534615e-01 -3.48924696e-02 -1.93896927e-02
   1.04266517e-01  4.76924121e-01  2.59612575e-02  2.37431690e-01
   3.62917259e-02 -9.89019424e-02 -6.28916025e-02 -5.29523119e-02
   5.69892302e-03  7.76613355e-02 -1.00453518e-01 -3.40298712e-01
   2.64364667e-02  1.77829731e-02 -5.05744778e-02  2.36862246e-02
   3.85173261e-02 -3.25127505e-02  1.03735821e-02  5.63541800e-03
   3.29426117e-02  5.68615794e-02 -9.05056149e-02 -5.52028567e-02
   1.08649269e-01 -1.21779926e-02  3.20849307e-02 -3.63449812e-01
  -3.43094356e-02  4.19160388e-02  1.64079607e-01 -2.38309260e-02
  -1.23795129e-01  1.23174423e-02 -3.74036282e-02 -1.04839779e-01
  -7.64797777e-02  9.71090347e-02 -5.40536530e-02 -1.35642543e-01
  -1.36835827e-02 -6.16208203e-02  2.02808529e-02 -2.95964062e-01
  -7.96692818e-03 -9.43942182e-03 -2.77804732e-01 -3.12341720e-01
  -2.22164556e-01 -1.37644529e-01 -2.05695685e-02 -1.75488070e-01
  -5.18732443e-02 -9.49408859e-03  3.30944583e-02 -7.09701329e-02
   1.74672585e-02  1.64204001e-01  4.58498299e-03 -1.38897657e-01
  -5.88953458e-02  4.34706919e-02 -2.16755524e-01  1.02869995e-01
  -5.00691794e-02  9.82134789e-03 -5.94095029e-02 -9.77434590e-03
   6.63078874e-02 -3.14242899e-01 -1.27679512e-01 -4.28666510e-02
  -1.01765133e-01  3.31986919e-02  1.17929384e-01  2.05721371e-02
  -5.15492521e-02  1.87074348e-01 -8.78893398e-03  9.71761346e-03
   7.84033462e-02  2.37114266e-01  3.76914144e-02  1.93706062e-02
  -3.00470367e-02 -1.18064366e-01 -4.27698828e-02 -2.47422099e-01]
 [-4.73574251e-02 -1.58000533e-02  1.10798031e-01 -2.61992440e-02
   3.25687081e-02  1.93279982e-02 -2.49903928e-02 -6.44052476e-02
  -6.67239130e-02 -6.42101541e-02 -1.07501216e-01 -5.20028770e-02
  -4.97122407e-02 -6.42079860e-02 -9.96354446e-02 -4.62575778e-02
  -5.16472422e-02 -5.23893870e-02 -3.34474631e-02 -2.58475728e-02
   4.54153866e-02  9.99352243e-03 -8.65528826e-03 -7.67862871e-02
   4.55878749e-02  3.08278129e-02 -5.73250577e-02 -1.41365722e-01
  -2.11899094e-02 -1.17064334e-01  1.89434186e-01  3.72621417e-02
  -1.88202355e-02 -1.48380056e-01 -4.52058911e-02 -5.90830632e-02
   3.36617827e-02 -1.69504747e-01 -5.58961742e-02  3.25515270e-02
  -7.88350478e-02 -5.03056720e-02 -6.69082627e-02 -1.71391433e-03
  -1.80057064e-01 -8.03395882e-02 -6.04280792e-02 -5.81854805e-02
   6.02865964e-03  1.64183632e-01  1.71537474e-01  2.62780748e-02
  -5.09137735e-02 -7.39377141e-02 -2.38309000e-02 -1.69875138e-02
   2.81919856e-02  3.79233398e-02  3.59824277e-03 -8.81354697e-03
  -1.57995131e-02  3.74539196e-02  1.84796434e-02  3.66922170e-02
  -2.11613834e-01 -1.29326647e-02  2.92746611e-02 -9.83271375e-02
  -5.15969023e-02 -1.65085997e-02 -7.30922967e-02 -2.75275186e-02
  -1.94662306e-02 -4.25159000e-02 -4.06060964e-02  7.73763359e-02
   1.12659819e-01  1.70840263e-01 -5.49678504e-02 -5.22361025e-02
   8.63831304e-03 -8.77983123e-03 -8.62731487e-02  3.22242547e-03
  -4.73077483e-02 -2.11600512e-02 -9.10401717e-02 -5.20791672e-02
  -3.56723205e-03  1.79166570e-01  4.26304974e-02  3.15720253e-02
   1.18274316e-01  4.59654303e-03 -2.56702378e-02 -2.46120114e-02
  -2.86734290e-02 -1.44934788e-01 -3.72989066e-02  2.16846820e-02
  -8.24015662e-02 -5.93190826e-02  9.68667790e-02 -8.05644318e-02
  -4.64377552e-02 -6.69451281e-02 -6.65423870e-02 -1.08493067e-01
  -1.29971048e-02 -9.59475636e-02 -1.52115691e-02  1.52544035e-02
   3.85371596e-02  9.55285504e-03 -4.17522080e-02 -5.20035364e-02
   4.22781333e-02 -2.24191267e-02 -6.73031956e-02 -6.83211014e-02
  -2.40552798e-02  6.26390651e-02 -6.26127701e-03  5.02093881e-02
  -2.21926924e-02  7.06093311e-02 -2.22912803e-02  7.71723241e-02]
 [-3.28996852e-02 -4.29860651e-02 -1.13996807e-02 -2.71785464e-02
  -2.65359189e-02  3.18277255e-02 -8.75742827e-03 -2.06412356e-02
   5.04997140e-03 -5.57207279e-02 -1.66177690e-01 -6.04575723e-02
   2.89856177e-02  4.54750955e-02 -4.68846336e-02 -7.08521381e-02
   2.69236206e-03  2.72240434e-02  2.29900684e-02 -7.15688318e-02
  -5.00233099e-02 -1.53760597e-01 -7.02693984e-02  6.98148040e-04
  -4.64509949e-02  1.34969324e-01  1.76289342e-02 -4.86613065e-02
  -4.91317138e-02  8.26217830e-02 -5.16564623e-02 -1.55448504e-02
   1.34345526e-02  1.03765920e-01 -6.87516779e-02  3.38143446e-02
  -7.93045908e-02  1.88034847e-02 -1.53491467e-01  2.41232216e-02
   8.10102820e-02 -2.53599379e-02  1.60344858e-02  3.69150122e-03
   1.56238778e-02  1.80980548e-01  2.05402281e-02  3.37107666e-02
  -1.07535906e-02 -1.42043633e-02 -1.88972801e-02  7.55430013e-02
  -8.22053850e-03  1.00730576e-01  3.95051166e-02  1.34954089e-02
  -1.21479863e-02  1.65410917e-02  5.50500713e-02 -3.45820561e-02
  -6.43878728e-02 -1.45542286e-02 -7.78874457e-02 -6.19688258e-02
   9.00411978e-02  3.91004123e-02  6.72982121e-03  8.60621110e-02
  -7.75404321e-03 -1.24645932e-02  2.49483157e-02 -4.52000163e-02
   1.17544822e-01 -1.25278393e-02 -9.89235863e-02  3.94330621e-02
   1.19401872e-01 -9.90592092e-02  8.96236394e-03  6.67859092e-02
   2.77584009e-02  2.18438567e-03 -9.04330984e-02  7.82572553e-02
   3.99965420e-02 -2.66092867e-02 -3.52012180e-03 -2.34199800e-02
   1.11129984e-01  1.09459385e-01  2.90568583e-02 -2.19295844e-01
  -1.22040004e-01 -1.93911903e-02 -2.44188681e-02 -4.21866104e-02
  -1.46534331e-02  8.40556895e-05 -1.85956471e-02 -5.24821877e-02
  -8.76440201e-03  3.43835056e-02 -5.92052080e-02  1.75269525e-02
   5.14247231e-02 -7.46859238e-03  5.65013215e-02  9.03138816e-02
   1.60674915e-01  2.79947855e-02 -1.57566592e-01 -7.80613273e-02
  -3.04868259e-02 -5.04321139e-03 -1.67214256e-02  4.47274745e-02
  -3.08996439e-02  1.17459610e-01  9.37745441e-03 -6.33701906e-02
  -5.49626984e-02 -1.56538889e-01  2.85864901e-02 -2.40450054e-02
   3.02396193e-02  5.13658896e-02 -2.86620669e-02  5.99703491e-02]
 [-3.42602916e-02 -6.41345754e-02 -4.93494868e-02 -5.15304096e-02
  -2.12745830e-01  3.57138254e-02  1.76881608e-02  5.63080516e-03
  -1.67339798e-02 -5.82771860e-02 -8.63242373e-02  3.05702351e-02
  -4.93946485e-04 -3.71644050e-02 -1.05148125e-02  1.83716649e-04
  -5.22093400e-02  4.71796170e-02 -6.14461750e-02  4.50336151e-02
   1.67657420e-01 -2.61860430e-01 -7.56230801e-02  9.41114593e-03
  -5.63333668e-02  5.05860895e-02  4.47561108e-02  4.16431688e-02
  -5.82076646e-02 -2.07333609e-01  3.85755599e-02 -6.05110079e-02
  -1.54265836e-02  6.14687465e-02 -1.24899447e-02 -4.56365757e-02
  -8.16790611e-02 -8.11729506e-02  1.20290868e-01 -1.19960085e-02
   7.07540289e-02 -1.06918618e-01  2.28784736e-02  4.69768569e-02
  -1.20725363e-01 -1.86522938e-02  2.24632230e-02  2.73108650e-02
   2.18338054e-02  1.07561730e-01 -1.99561611e-01 -1.32015217e-02
  -1.52858905e-03  1.24830864e-02 -1.17419483e-02 -3.31315235e-03
   3.02898362e-02 -5.19633032e-02 -4.56937104e-02  1.24070486e-02
   3.27844284e-02 -2.76687257e-02  3.37346531e-02 -4.62156981e-02
   3.07614785e-02 -1.99923776e-02 -5.47011793e-02 -2.35593785e-02
   5.26860990e-02  5.62919006e-02 -3.41925696e-02 -5.82589358e-02
   6.21895567e-02 -2.73974128e-02  2.14338228e-02 -1.79000765e-01
   2.07319111e-01  6.86836392e-02 -9.94301029e-03  6.24807831e-03
   1.96453575e-02 -1.03542440e-01 -1.28744602e-01 -3.29054482e-02
  -6.26108348e-02 -4.78984974e-02 -1.45450030e-02 -8.34475905e-02
   4.39946093e-02 -1.02829717e-01 -3.12416852e-01 -1.10569179e-01
   3.60828303e-02  1.24584073e-02 -8.51340368e-02  3.10470350e-02
   3.36098671e-03 -1.74118862e-01  3.88170779e-03  4.46343906e-02
   3.10450699e-02 -9.19042248e-03 -6.49836808e-02  7.48077184e-02
  -8.51798430e-02  1.74999595e-01  3.39967348e-02 -2.39155982e-02
   1.21288382e-01 -3.42288837e-02 -1.84983481e-02 -4.22042459e-02
   2.19347384e-02 -1.90496445e-02 -5.89544438e-02 -3.42429578e-02
  -7.15135336e-02  1.70383781e-01  2.03104373e-02 -5.97212575e-02
   1.00317754e-01 -1.48313820e-01  2.32935380e-02 -6.92230165e-02
   3.26523632e-02 -1.28216008e-02 -3.74017768e-02  1.20358355e-01]
 [-5.65389916e-02 -3.90881207e-03  3.37512344e-02 -6.01135083e-02
   2.37499565e-01 -3.02882586e-02 -2.00551376e-02 -3.42563391e-02
  -1.73684373e-01 -2.43074726e-02 -2.99271755e-02 -1.23118563e-02
   9.35599431e-02  4.46147379e-03 -9.65985134e-02  2.51654442e-02
  -4.06405218e-02 -2.76961755e-02 -5.61572649e-02 -4.62972410e-02
   2.24568024e-02 -2.70378858e-01 -3.08281220e-02 -1.49722965e-02
  -1.12488586e-02  3.15454379e-02 -2.26218000e-01 -1.33038675e-02
   2.17471514e-02 -1.12988137e-01  1.13991469e-01  1.98729485e-01
  -4.95621562e-02 -5.95073104e-02  3.13790180e-02  8.96585523e-04
  -6.44401684e-02 -2.06664741e-01  3.78624238e-02 -2.16852929e-02
  -1.46717981e-01 -3.57794133e-03 -2.79944446e-02 -9.24432799e-02
  -1.20371960e-01  1.45149161e-03  4.82730847e-03 -4.41178270e-02
  -7.58056194e-02  1.33100361e-01  2.31890544e-01  3.21877748e-02
   4.36252262e-03  1.95289981e-02 -4.34191748e-02 -7.55073130e-02
  -3.37430611e-02 -1.34641798e-02  9.21577215e-03  4.39852551e-02
  -5.96913137e-02 -5.86333573e-02 -1.13050297e-01 -6.00038357e-02
  -7.44925141e-02 -1.69453938e-02 -3.90255451e-02  8.96579996e-02
  -1.55301625e-03 -2.18663253e-02  1.07064573e-02 -3.35970894e-02
   8.19361061e-02 -4.01586145e-02  6.20421655e-02  5.72075546e-02
   5.81962839e-02 -9.79470387e-02 -4.59958054e-02  2.90685762e-02
   6.10275613e-03  1.90519653e-02 -1.40553415e-01 -4.90068905e-02
   3.21344733e-02  1.41618354e-02  8.07811171e-02 -5.15899584e-02
   1.90023616e-01 -1.54453754e-01  9.90996510e-02 -9.43390206e-02
   6.81721494e-02 -3.68309133e-02 -3.53012308e-02  2.41556726e-02
  -1.25382440e-02 -5.15985582e-03 -6.79560155e-02  3.86689380e-02
   4.65093367e-02 -5.11277914e-02  8.99752323e-03 -1.95699334e-02
  -8.48215260e-03 -6.23811521e-02  4.24945019e-02 -1.05693296e-01
   8.42177123e-02  1.76877957e-02 -1.15711093e-02 -3.46677192e-02
   9.86129194e-02  3.71759497e-02 -9.66428779e-03 -5.83963431e-02
   1.85836460e-02 -1.77786946e-02 -1.78344876e-01 -5.41838482e-02
  -7.37472028e-02 -7.13566365e-03 -2.17782538e-02 -2.06036214e-02
   4.63342443e-02  5.98179363e-02 -2.78916629e-03 -7.38392770e-02]
 [-1.25373350e-02 -3.00057195e-02 -7.27013946e-02  3.12567353e-02
  -1.25884980e-01 -2.96613276e-02 -5.97693808e-02  3.08512570e-03
  -1.86744158e-03 -4.08926466e-03 -7.01425737e-03  3.39902518e-03
  -2.69419770e-03  5.58639988e-02 -6.24760948e-02  1.91924721e-02
  -5.50694205e-02 -1.34965908e-02 -2.43544504e-02 -4.29522432e-02
  -1.97324902e-02 -5.87034449e-02 -3.10133044e-02 -5.44984899e-02
  -3.94819342e-02 -8.32855776e-02  5.78463636e-02  3.56301852e-02
  -1.79602299e-02 -6.67782202e-02  6.24733046e-02 -6.19912595e-02
  -1.73772704e-02  9.37077031e-02  3.41220498e-02 -1.34303486e-02
  -2.85655521e-02  5.67131341e-02  1.43312842e-01 -2.44796444e-02
  -1.43904820e-01 -4.60903123e-02  1.15711838e-02  5.37515804e-02
   9.13325250e-02 -2.75308751e-02 -3.67167257e-02  2.40200963e-02
  -1.31052416e-02 -4.74826954e-02 -3.50788534e-02 -7.01967701e-02
   3.18290554e-02 -1.07670344e-01 -7.05457553e-02 -5.62937260e-02
  -5.09667546e-02  4.72622961e-02 -1.93969514e-02  1.70774776e-02
   3.40926051e-02  2.82574184e-02 -5.58278784e-02 -2.05401778e-02
  -1.17851160e-01  2.51152888e-02  5.21913124e-03 -1.32026777e-01
  -8.88257474e-02  2.09405292e-02  2.20255461e-02 -2.54592393e-02
  -5.60091436e-02 -5.20051159e-02  6.87315166e-02 -1.03278644e-02
   9.32446122e-03 -2.14908700e-02  3.76586616e-02 -4.80104499e-02
  -4.71371561e-02 -3.78507450e-02 -8.43609683e-03  2.14349218e-02
   3.03571653e-02 -1.08600780e-02 -1.32796224e-04  1.52297094e-02
   1.01115748e-01 -4.91253240e-03  1.80606209e-02 -1.63264410e-03
  -1.37686789e-01 -2.17031278e-02 -4.75529656e-02 -1.37051428e-02
  -4.74384353e-02 -3.99442092e-02  3.10393469e-03 -2.12285807e-03
   1.05766505e-02 -1.25312097e-02  1.09450258e-01  7.41149066e-03
  -5.79680391e-02 -5.51033765e-02 -1.52777322e-02 -7.18578994e-02
   1.74705368e-02  1.05901249e-01  7.47396648e-02 -3.93836312e-02
   6.98054582e-02  3.04728020e-02 -9.75122228e-02  7.12066656e-03
  -5.76264225e-02 -8.58380646e-03 -1.23319656e-01  1.56513192e-02
  -6.26147389e-02 -1.69741618e-03 -5.14229201e-02  4.15214635e-02
  -1.02972453e-02  8.22167322e-02  3.70212495e-02  7.69277215e-02]
 [-4.99816760e-02 -3.73527966e-02 -5.06573021e-01 -1.85042173e-02
   1.27856201e-02  3.28025036e-02 -2.18637343e-02  5.07251434e-02
   8.23074728e-02 -3.66539992e-02  1.35236368e-01 -6.21118862e-03
  -3.31364125e-02 -2.95735523e-02  1.43615529e-01  1.32651124e-02
   2.80557554e-02 -5.08855134e-02 -1.01535376e-02  1.32774934e-02
   5.16619563e-01 -3.96124609e-02  4.52275649e-02 -6.48558885e-02
   5.29270992e-02  5.88445961e-02  6.17518537e-02  3.92575189e-02
   2.00520828e-03 -7.14171082e-02 -2.35185385e-01  4.74114746e-01
   5.24572693e-02  7.33216479e-02  1.87941566e-02  1.64922234e-02
  -5.90694174e-02  1.37261659e-01 -9.75249857e-02  4.54223864e-02
  -1.66153498e-02  4.43743885e-01  9.86174494e-03  6.04892790e-01
   1.89179331e-02 -3.14683408e-01  4.33887430e-02  2.53756270e-02
